<?xml version="1.0"?>
<opencv_storage>
<!-- Created using Computer Vision System Toolbox(tm) for MATLAB(R) -->
<!-- Version 8.6.0.267246 (R2015b) -->
<!-- Compatible with OpenCV 2.4 -->
<cascade>
  <stageType>BOOST</stageType>
  <featureType>LBP</featureType>
  <height>32</height>
  <width>33</width>
  <stageParams>
    <boostType>GAB</boostType>
    <minHitRate>9.9500000476837158e-01</minHitRate>
    <maxFalseAlarm>3.0000001192092896e-01</maxFalseAlarm>
    <weightTrimRate>9.4999999999999996e-01</weightTrimRate>
    <maxDepth>1</maxDepth>
    <maxWeakCount>100</maxWeakCount></stageParams>
  <featureParams>
    <maxCatCount>256</maxCatCount>
    <featSize>1</featSize></featureParams>
  <stageNum>13</stageNum>
  <stages>
    <!-- stage 0 -->
    <_>
      <maxWeakCount>5</maxWeakCount>
      <stageThreshold>-1.3215233087539673e+00</stageThreshold>
      <weakClassifiers>
        <_>
          <internalNodes>
            0 -1 4 -137494838 -715262997 1091338316 1532875599
            -761464081 1905823746 990886095 2002727819</internalNodes>
          <leafValues>
            -8.1368505954742432e-01 5.5487805604934692e-01</leafValues></_>
        <_>
          <internalNodes>
            0 -1 9 -269497622 1189865034 -1071939378 -77643014
            -886705712 7471154 1874313707 2012741359</internalNodes>
          <leafValues>
            -7.6284956932067871e-01 4.8337841033935547e-01</leafValues></_>
        <_>
          <internalNodes>
            0 -1 13 -4164632 1473275698 328219646 -738509918 -207047698
            -1679547925 -352093253 924803771</internalNodes>
          <leafValues>
            -7.3339962959289551e-01 4.9032947421073914e-01</leafValues></_>
        <_>
          <internalNodes>
            0 -1 81 -525568 -196159422 157536514 -917636793 2130917635
            -1068427229 187398922 -608437445</internalNodes>
          <leafValues>
            -6.6775727272033691e-01 5.0477576255798340e-01</leafValues></_>
        <_>
          <internalNodes>
            0 -1 88 1998443636 1061081264 1395605758 931110116 949612029
            1729692116 -1084603522 926635511</internalNodes>
          <leafValues>
            -7.4761950969696045e-01 4.3243920803070068e-01</leafValues></_></weakClassifiers></_>
    <!-- stage 1 -->
    <_>
      <maxWeakCount>7</maxWeakCount>
      <stageThreshold>-9.5421129465103149e-01</stageThreshold>
      <weakClassifiers>
        <_>
          <internalNodes>
            0 -1 3 2004874156 -2049 2073032477 -1025 -71712833
            -135205904 -67125249 -134266881</internalNodes>
          <leafValues>
            -6.8352448940277100e-01 4.2518350481987000e-01</leafValues></_>
        <_>
          <internalNodes>
            0 -1 12 -1041 -491782913 -16929266 -487587865 -140520637
            1953908727 -42467833 -142608433</internalNodes>
          <leafValues>
            -4.3539282679557800e-01 7.2854840755462646e-01</leafValues></_>
        <_>
          <internalNodes>
            0 -1 44 64993532 334879229 1399372476 -76021825 -524552
            -134876708 -8979540 1005920255</internalNodes>
          <leafValues>
            -6.7165422439575195e-01 4.2733812332153320e-01</leafValues></_>
        <_>
          <internalNodes>
            0 -1 65 235929949 2141171693 2147454911 2145532784 217732607
            -1140883489 -1342300177 -1420295868</internalNodes>
          <leafValues>
            -4.8369029164314270e-01 5.5363517999649048e-01</leafValues></_>
        <_>
          <internalNodes>
            0 -1 76 2147481348 1012793117 1059028911 840957759 -67125499
            2102853360 -1074004433 -1275069441</internalNodes>
          <leafValues>
            -5.9841084480285645e-01 4.4001668691635132e-01</leafValues></_>
        <_>
          <internalNodes>
            0 -1 46 -342383622 -27617953 572727920 1677275647 1979011055
            1360095375 1796501248 1397050191</internalNodes>
          <leafValues>
            -8.1093060970306396e-01 3.1377968192100525e-01</leafValues></_>
        <_>
          <internalNodes>
            0 -1 90 -33808899 -151044357 -134220801 -29364249 -34283730
            -1095008273 -25370693 -33026792</internalNodes>
          <leafValues>
            -4.4535332918167114e-01 5.7655572891235352e-01</leafValues></_></weakClassifiers></_>
    <!-- stage 2 -->
    <_>
      <maxWeakCount>7</maxWeakCount>
      <stageThreshold>-1.7277892827987671e+00</stageThreshold>
      <weakClassifiers>
        <_>
          <internalNodes>
            0 -1 11 -2098193 -997201169 10180354 -18882353 -237505725
            1682092643 1942746487 -134217729</internalNodes>
          <leafValues>
            -5.9569990634918213e-01 5.1204818487167358e-01</leafValues></_>
        <_>
          <internalNodes>
            0 -1 72 1978946045 -232963 -616884737 993661372 -627035652
            -71464229 -1156923460 -1079500120</internalNodes>
          <leafValues>
            -4.6991354227066040e-01 5.4141032695770264e-01</leafValues></_>
        <_>
          <internalNodes>
            0 -1 30 585048746 -541249034 897539006 -33571393 -1075840122
            1933198088 -278955577 1595932606</internalNodes>
          <leafValues>
            -6.9938552379608154e-01 3.6210635304450989e-01</leafValues></_>
        <_>
          <internalNodes>
            0 -1 109 -268831893 29343734 -789776 -494928133 -138447757
            1881636703 -706743823 -731906177</internalNodes>
          <leafValues>
            -4.8000204563140869e-01 4.9848333001136780e-01</leafValues></_>
        <_>
          <internalNodes>
            0 -1 91 925897201 -1346748482 938474877 -1611809547
            -1346453509 -1346404429 233192701 -1611786184</internalNodes>
          <leafValues>
            -4.1267079114913940e-01 5.9163463115692139e-01</leafValues></_>
        <_>
          <internalNodes>
            0 -1 63 -33692984 1953809901 -204920865 -9377921 2080242623
            560295588 -273731617 -141258867</internalNodes>
          <leafValues>
            -5.9186577796936035e-01 4.2953631281852722e-01</leafValues></_>
        <_>
          <internalNodes>
            0 -1 2 -825341714 -338835777 -1055918499 1564467183
            -354944070 -422466307 -502160113 1937307119</internalNodes>
          <leafValues>
            -6.0740184783935547e-01 3.9685493707656860e-01</leafValues></_></weakClassifiers></_>
    <!-- stage 3 -->
    <_>
      <maxWeakCount>9</maxWeakCount>
      <stageThreshold>-1.1091108322143555e+00</stageThreshold>
      <weakClassifiers>
        <_>
          <internalNodes>
            0 -1 28 2002000637 -43777 -32637697 -18998116 -1188642949
            -12661137 -91684865 -1074124612</internalNodes>
          <leafValues>
            -6.3800668716430664e-01 3.4717416763305664e-01</leafValues></_>
        <_>
          <internalNodes>
            0 -1 14 -83992321 -297352210 -220732678 -487853830
            -820003001 67100511 -134875137 2003828571</internalNodes>
          <leafValues>
            -5.9791499376296997e-01 3.5259440541267395e-01</leafValues></_>
        <_>
          <internalNodes>
            0 -1 75 -1074776131 -36716547 -1073742345 -140525707
            -1086343681 -1074790500 -67176705 -1147393664</internalNodes>
          <leafValues>
            -3.7906792759895325e-01 5.8909773826599121e-01</leafValues></_>
        <_>
          <internalNodes>
            0 -1 84 -2302 -16810896 -144967787 1559747674 -140298495
            870654995 -1678021781 1274805099</internalNodes>
          <leafValues>
            -5.9618800878524780e-01 3.8623058795928955e-01</leafValues></_>
        <_>
          <internalNodes>
            0 -1 23 1657962474 1943757311 -1028457554 2011131867
            1878620959 1333729019 1274727343 1202075622</internalNodes>
          <leafValues>
            -5.8907073736190796e-01 3.6934852600097656e-01</leafValues></_>
        <_>
          <internalNodes>
            0 -1 53 587348003 -288438641 -276620931 -1075938305
            -2103528465 -268586833 -1832913961 -824207901</internalNodes>
          <leafValues>
            -4.9294400215148926e-01 4.4631308317184448e-01</leafValues></_>
        <_>
          <internalNodes>
            0 -1 24 -145903028 -38937090 1594202141 1608248063
            -348497049 -102178294 -276922633 987673160</internalNodes>
          <leafValues>
            -6.3959705829620361e-01 3.4612885117530823e-01</leafValues></_>
        <_>
          <internalNodes>
            0 -1 97 428883185 -1919591293 389404021 -2664101 -1181828357
            -1349537145 876492285 195046832</internalNodes>
          <leafValues>
            -5.1951014995574951e-01 4.3583485484123230e-01</leafValues></_>
        <_>
          <internalNodes>
            0 -1 1 -890507281 -976841734 -438621273 -723074369
            -944815793 -1077415273 -807967802 1190622167</internalNodes>
          <leafValues>
            -4.9023547768592834e-01 4.5978659391403198e-01</leafValues></_></weakClassifiers></_>
    <!-- stage 4 -->
    <_>
      <maxWeakCount>10</maxWeakCount>
      <stageThreshold>-1.4888689517974854e+00</stageThreshold>
      <weakClassifiers>
        <_>
          <internalNodes>
            0 -1 115 -135266321 -521144321 -286261530 -489689097
            -67109017 -1762131977 -1 -134217745</internalNodes>
          <leafValues>
            -5.5177742242813110e-01 5.8441555500030518e-01</leafValues></_>
        <_>
          <internalNodes>
            0 -1 93 655431025 -1409865319 -11193389 -2140677 -1142767621
            -1413492069 -1145950217 -1682300880</internalNodes>
          <leafValues>
            -4.6762323379516602e-01 4.6213400363922119e-01</leafValues></_>
        <_>
          <internalNodes>
            0 -1 19 -404230424 -338777397 -270808884 -806121730
            -281019405 -76309733 -545530113 1450662543</internalNodes>
          <leafValues>
            -6.6199207305908203e-01 3.2904061675071716e-01</leafValues></_>
        <_>
          <internalNodes>
            0 -1 37 -339158086 -2039317 -1543760901 -44253190 -134365253
            -344626519 -4407425 2144168703</internalNodes>
          <leafValues>
            -5.7602530717849731e-01 3.4187105298042297e-01</leafValues></_>
        <_>
          <internalNodes>
            0 -1 29 -299061713 -272128082 -849220297 -604044299
            -893659937 -352630021 530521591 -822672138</internalNodes>
          <leafValues>
            -4.8352667689323425e-01 4.3607500195503235e-01</leafValues></_>
        <_>
          <internalNodes>
            0 -1 77 -1515449347 -9584729 -134217813 -537559047
            -1143537665 -548421697 -10700801 -1308350272</internalNodes>
          <leafValues>
            -4.0592262148857117e-01 5.0457626581192017e-01</leafValues></_>
        <_>
          <internalNodes>
            0 -1 27 -67567617 -287389202 -765443373 1379073999
            -537402549 -950274751 -135466246 2001398735</internalNodes>
          <leafValues>
            -4.6283718943595886e-01 4.6589258313179016e-01</leafValues></_>
        <_>
          <internalNodes>
            0 -1 100 -276824541 -1490859225 -103810512 -10486789
            2147221006 68238094 -234950446 -722490195</internalNodes>
          <leafValues>
            -5.0879913568496704e-01 4.2225533723831177e-01</leafValues></_>
        <_>
          <internalNodes>
            0 -1 107 -40159241 -1594182920 2103249277 -1611449451
            738131452 2042342316 503127384 1073692145</internalNodes>
          <leafValues>
            -5.2957290410995483e-01 3.9752647280693054e-01</leafValues></_>
        <_>
          <internalNodes>
            0 -1 62 1372911566 -144843977 59339992 591878607 -1040960530
            -772699393 63401419 1443488751</internalNodes>
          <leafValues>
            -6.1849164962768555e-01 3.3807438611984253e-01</leafValues></_></weakClassifiers></_>
    <!-- stage 5 -->
    <_>
      <maxWeakCount>10</maxWeakCount>
      <stageThreshold>-1.5026979446411133e+00</stageThreshold>
      <weakClassifiers>
        <_>
          <internalNodes>
            0 -1 39 1052647133 -173827 -623075841 -1080554369
            -1147523201 -42883 -1160856065 -1090647557</internalNodes>
          <leafValues>
            -6.1590397357940674e-01 3.6940297484397888e-01</leafValues></_>
        <_>
          <internalNodes>
            0 -1 114 -2098453 -522195985 1668010577 -220207233
            -268522750 -2117346326 1973384965 -704643137</internalNodes>
          <leafValues>
            -4.6997314691543579e-01 4.3325376510620117e-01</leafValues></_>
        <_>
          <internalNodes>
            0 -1 79 -50383868 -148949244 1880882047 572517757 -8651263
            -281018705 -1573913927 -1350582413</internalNodes>
          <leafValues>
            -6.0313493013381958e-01 3.1045356392860413e-01</leafValues></_>
        <_>
          <internalNodes>
            0 -1 106 -838861829 -1917618184 477960569 2078229227
            -42227536 1962180560 482172109 698841325</internalNodes>
          <leafValues>
            -5.3703439235687256e-01 3.4085085988044739e-01</leafValues></_>
        <_>
          <internalNodes>
            0 -1 66 -1111976784 -294023 -1770409987 -8421444 -1754616341
            -37851143 -1342706453 -5731960</internalNodes>
          <leafValues>
            -3.5886669158935547e-01 5.3001707792282104e-01</leafValues></_>
        <_>
          <internalNodes>
            0 -1 57 1677003739 -113658885 64025599 861027259 -807460937
            -805485067 -1217398913 -682643473</internalNodes>
          <leafValues>
            -3.7833404541015625e-01 5.3091907501220703e-01</leafValues></_>
        <_>
          <internalNodes>
            0 -1 18 262860738 -954535362 1494997203 -268446723
            1066101258 532388762 259857383 397929720</internalNodes>
          <leafValues>
            -5.8374738693237305e-01 3.6719757318496704e-01</leafValues></_>
        <_>
          <internalNodes>
            0 -1 8 -504368393 -403973938 1142812955 2130705394
            -806365185 1204813663 1200872869 -212338749</internalNodes>
          <leafValues>
            -4.4263169169425964e-01 4.4453093409538269e-01</leafValues></_>
        <_>
          <internalNodes>
            0 -1 89 -143139038 -1372610769 1524585282 -42493083
            468409070 255568367 -233046021 1954495869</internalNodes>
          <leafValues>
            -5.9833812713623047e-01 3.3362114429473877e-01</leafValues></_>
        <_>
          <internalNodes>
            0 -1 16 -496311712 -67240739 320065919 -3697553 -504063237
            -34848553 -942048385 -136182798</internalNodes>
          <leafValues>
            -6.1143988370895386e-01 3.1519958376884460e-01</leafValues></_></weakClassifiers></_>
    <!-- stage 6 -->
    <_>
      <maxWeakCount>8</maxWeakCount>
      <stageThreshold>-1.5863503217697144e+00</stageThreshold>
      <weakClassifiers>
        <_>
          <internalNodes>
            0 -1 48 -536883046 -1621159806 830689803 -681881569
            1554645722 1432459347 -1026827557 -897595173</internalNodes>
          <leafValues>
            -6.7913281917572021e-01 3.3229002356529236e-01</leafValues></_>
        <_>
          <internalNodes>
            0 -1 82 -154937122 -740320326 -1064677156 -234891961
            -226322040 -267861816 -892806262 -1681143029</internalNodes>
          <leafValues>
            -5.3656369447708130e-01 4.8703777790069580e-01</leafValues></_>
        <_>
          <internalNodes>
            0 -1 15 -201342454 -293445106 1343246513 -636036401
            1137068046 1107705930 546371315 -212342473</internalNodes>
          <leafValues>
            -5.8243000507354736e-01 3.8612946867942810e-01</leafValues></_>
        <_>
          <internalNodes>
            0 -1 73 -1442703088 -938966900 -117321344 -578129624
            -1970622208 -2054750199 -1869971040 -2088084999</internalNodes>
          <leafValues>
            -5.5256092548370361e-01 3.8369509577751160e-01</leafValues></_>
        <_>
          <internalNodes>
            0 -1 61 -109557510 -556799960 1363675310 -47390134
            -945038774 -641302502 286876264 387072330</internalNodes>
          <leafValues>
            -6.8961250782012939e-01 3.3943822979927063e-01</leafValues></_>
        <_>
          <internalNodes>
            0 -1 105 1308619514 1427623970 -2134654256 -845463344
            -481643008 -636805120 193695208 -904926278</internalNodes>
          <leafValues>
            -5.3476792573928833e-01 4.2060667276382446e-01</leafValues></_>
        <_>
          <internalNodes>
            0 -1 103 -220704550 -758824189 -661532321 1370641295
            -2146766708 -884234226 -1300065617 -1440603582</internalNodes>
          <leafValues>
            -4.9109196662902832e-01 4.3388631939888000e-01</leafValues></_>
        <_>
          <internalNodes>
            0 -1 32 1405048286 1676107844 1458952917 1473729799
            -89686273 -556663154 643694254 -263469218</internalNodes>
          <leafValues>
            -4.7447410225868225e-01 4.9538412690162659e-01</leafValues></_></weakClassifiers></_>
    <!-- stage 7 -->
    <_>
      <maxWeakCount>11</maxWeakCount>
      <stageThreshold>-1.2358958721160889e+00</stageThreshold>
      <weakClassifiers>
        <_>
          <internalNodes>
            0 -1 26 -67112229 1603530954 1167249432 1493356638
            1590390970 -69515262 299028667 -551831185</internalNodes>
          <leafValues>
            -6.2214320898056030e-01 3.4811264276504517e-01</leafValues></_>
        <_>
          <internalNodes>
            0 -1 22 1594536914 1398705040 1359638794 1359075535
            -133545862 -71434040 1216497914 1147912399</internalNodes>
          <leafValues>
            -6.9485956430435181e-01 2.7592778205871582e-01</leafValues></_>
        <_>
          <internalNodes>
            0 -1 42 -27468068 -32701496 444832379 427826019 -624789256
            402915328 1058994938 2065690198</internalNodes>
          <leafValues>
            -5.7594293355941772e-01 3.2991197705268860e-01</leafValues></_>
        <_>
          <internalNodes>
            0 -1 101 -123314960 -150847013 -2143141481 -250406909
            -519404854 -1702362624 -1022721364 -1492485541</internalNodes>
          <leafValues>
            -4.7721883654594421e-01 4.2487260699272156e-01</leafValues></_>
        <_>
          <internalNodes>
            0 -1 51 -737087272 -553582318 1140859352 1372590482
            1619030261 1056964756 -1962214661 -1648688498</internalNodes>
          <leafValues>
            -4.9518477916717529e-01 3.9037412405014038e-01</leafValues></_>
        <_>
          <internalNodes>
            0 -1 86 -117444898 -49721088 -914177570 1343616595 -69486072
            -478085040 1079189713 1539296242</internalNodes>
          <leafValues>
            -4.9829581379890442e-01 3.8123098015785217e-01</leafValues></_>
        <_>
          <internalNodes>
            0 -1 38 -216785442 -1689235356 -1073594217 491788428
            -360165176 -75366368 -1710617669 -1422783590</internalNodes>
          <leafValues>
            -5.3843760490417480e-01 3.5352617502212524e-01</leafValues></_>
        <_>
          <internalNodes>
            0 -1 60 -780012645 -2110046 1440051150 -942848051 1129771515
            -883323013 359000063 -546240269</internalNodes>
          <leafValues>
            -3.9067721366882324e-01 5.3146624565124512e-01</leafValues></_>
        <_>
          <internalNodes>
            0 -1 71 -531387473 -251354460 1032996350 37270430 -934037321
            -162691001 886209710 1267712523</internalNodes>
          <leafValues>
            -4.4735744595527649e-01 4.4076517224311829e-01</leafValues></_>
        <_>
          <internalNodes>
            0 -1 110 -174588418 -1420050121 1342272445 1002818005
            -1358225224 -1431762800 1493782812 490719451</internalNodes>
          <leafValues>
            -5.0687617063522339e-01 3.6484947800636292e-01</leafValues></_>
        <_>
          <internalNodes>
            0 -1 17 -832902918 -538721856 1480674175 -78315170
            1086849260 -335531893 1403602145 -82554265</internalNodes>
          <leafValues>
            -5.0876069068908691e-01 4.0320542454719543e-01</leafValues></_></weakClassifiers></_>
    <!-- stage 8 -->
    <_>
      <maxWeakCount>10</maxWeakCount>
      <stageThreshold>-1.5638700723648071e+00</stageThreshold>
      <weakClassifiers>
        <_>
          <internalNodes>
            0 -1 111 -67372037 2106323570 285720641 2065423483 -73671429
            -1154959245 1510201757 -9699333</internalNodes>
          <leafValues>
            -5.4933393001556396e-01 4.7877758741378784e-01</leafValues></_>
        <_>
          <internalNodes>
            0 -1 64 -204866990 -35860298 -2059927149 -207495553
            -1093801029 -117423180 -1323181281 -9609985</internalNodes>
          <leafValues>
            -4.8955664038658142e-01 3.8748294115066528e-01</leafValues></_>
        <_>
          <internalNodes>
            0 -1 36 1808577270 -272153657 1350652607 1462063107
            1485437950 -119025609 1074219775 1701277679</internalNodes>
          <leafValues>
            -5.2863049507141113e-01 3.4246677160263062e-01</leafValues></_>
        <_>
          <internalNodes>
            0 -1 80 -633161871 357691396 -1862166435 1034798385
            998797563 -1077962559 486879737 521867303</internalNodes>
          <leafValues>
            -4.6359786391258240e-01 3.9004090428352356e-01</leafValues></_>
        <_>
          <internalNodes>
            0 -1 21 1595079610 1269188814 -67047248 -549850250
            1380931699 1333985312 -704644103 1599135330</internalNodes>
          <leafValues>
            -6.3286811113357544e-01 3.1847289204597473e-01</leafValues></_>
        <_>
          <internalNodes>
            0 -1 20 -1286612229 -594360126 1090748637 2072744925
            186331547 1764396267 1804801179 1532484972</internalNodes>
          <leafValues>
            -4.3430724740028381e-01 3.9571619033813477e-01</leafValues></_>
        <_>
          <internalNodes>
            0 -1 41 -1370303528 -108960885 810361084 -194723198
            -255771735 1511113413 1544215181 458085355</internalNodes>
          <leafValues>
            -6.0661876201629639e-01 3.0127456784248352e-01</leafValues></_>
        <_>
          <internalNodes>
            0 -1 98 -396627704 1398760001 1275089586 844876883
            1807861792 -125632292 1611396090 1918324280</internalNodes>
          <leafValues>
            -6.3106572628021240e-01 2.6818200945854187e-01</leafValues></_>
        <_>
          <internalNodes>
            0 -1 68 1959590586 -617802666 -719760442 -1496599162
            1983270450 524651818 1902628379 1595624256</internalNodes>
          <leafValues>
            -6.4060378074645996e-01 2.5443223118782043e-01</leafValues></_>
        <_>
          <internalNodes>
            0 -1 52 -1725932336 -609226780 251641813 2071199729
            -1342800165 -529027 -1667514887 -128816</internalNodes>
          <leafValues>
            -3.7388104200363159e-01 4.8351764678955078e-01</leafValues></_></weakClassifiers></_>
    <!-- stage 9 -->
    <_>
      <maxWeakCount>12</maxWeakCount>
      <stageThreshold>-9.6067470312118530e-01</stageThreshold>
      <weakClassifiers>
        <_>
          <internalNodes>
            0 -1 45 -68419841 -817642686 1954697427 -228951717
            -577191222 -819372919 -431168769 -90475713</internalNodes>
          <leafValues>
            -5.4422706365585327e-01 3.8844084739685059e-01</leafValues></_>
        <_>
          <internalNodes>
            0 -1 5 -342890245 -640536440 1329063095 1438373010 128686305
            -234626833 152793275 1475827191</internalNodes>
          <leafValues>
            -5.0968205928802490e-01 3.4187272191047668e-01</leafValues></_>
        <_>
          <internalNodes>
            0 -1 104 -612371461 525787763 150493936 -237780013
            1742582539 -635831734 -602154301 1477435131</internalNodes>
          <leafValues>
            -4.2566481232643127e-01 4.0619945526123047e-01</leafValues></_>
        <_>
          <internalNodes>
            0 -1 59 -490061296 -272284990 822604279 1471636700
            -909153043 -619723873 1406116669 -1646982569</internalNodes>
          <leafValues>
            -5.5210447311401367e-01 3.1449642777442932e-01</leafValues></_>
        <_>
          <internalNodes>
            0 -1 102 -1290258032 -4378984 -1090519041 -8405088 -4272385
            -856965122 -1610617365 -1073799583</internalNodes>
          <leafValues>
            -3.6054980754852295e-01 4.8109829425811768e-01</leafValues></_>
        <_>
          <internalNodes>
            0 -1 70 1123484490 1942377202 115088652 1926506071
            -1596936009 -744923099 550205935 1443880591</internalNodes>
          <leafValues>
            -5.8843594789505005e-01 2.8652209043502808e-01</leafValues></_>
        <_>
          <internalNodes>
            0 -1 78 819041340 -581074925 1476451803 -1742815027
            -1191147304 -108392263 -1442794789 -1600384768</internalNodes>
          <leafValues>
            -4.5829507708549500e-01 3.8920387625694275e-01</leafValues></_>
        <_>
          <internalNodes>
            0 -1 25 -269729542 -583674291 -34278148 1594726141
            -494798566 1256917137 -113911505 -1426862019</internalNodes>
          <leafValues>
            -4.8710638284683228e-01 3.5883504152297974e-01</leafValues></_>
        <_>
          <internalNodes>
            0 -1 112 -354946400 -460615612 -1874243534 815255883
            -1065052081 1208682763 1133093520 -77595172</internalNodes>
          <leafValues>
            -3.9814496040344238e-01 4.4719246029853821e-01</leafValues></_>
        <_>
          <internalNodes>
            0 -1 113 -22021789 -2004117374 -2146565775 -2121285165
            -556944591 -1979465655 1105945849 1172028411</internalNodes>
          <leafValues>
            -4.8171108961105347e-01 3.4729865193367004e-01</leafValues></_>
        <_>
          <internalNodes>
            0 -1 7 -891335570 -289635698 1448174199 860650338 1547936386
            583311810 -1840993484 2136341959</internalNodes>
          <leafValues>
            -6.0876816511154175e-01 2.7286893129348755e-01</leafValues></_>
        <_>
          <internalNodes>
            0 -1 50 -1699424400 184208251 1494446342 1373321439
            369751033 1091158335 181140443 50257996</internalNodes>
          <leafValues>
            -6.5043944120407104e-01 2.3377195000648499e-01</leafValues></_></weakClassifiers></_>
    <!-- stage 10 -->
    <_>
      <maxWeakCount>10</maxWeakCount>
      <stageThreshold>-9.4884765148162842e-01</stageThreshold>
      <weakClassifiers>
        <_>
          <internalNodes>
            0 -1 69 -286100712 1909724684 1711812986 -12568121
            -1307180246 -140509040 9069898 -2113889781</internalNodes>
          <leafValues>
            -5.4936707019805908e-01 4.8777234554290771e-01</leafValues></_>
        <_>
          <internalNodes>
            0 -1 10 -905972485 -340870238 1861154530 -571998224
            767530298 -973605266 1171609543 -603981913</internalNodes>
          <leafValues>
            -3.1862723827362061e-01 6.4907848834991455e-01</leafValues></_>
        <_>
          <internalNodes>
            0 -1 49 290915224 825266853 286261341 464711815 927173130
            459091236 865261999 398695054</internalNodes>
          <leafValues>
            -5.8378845453262329e-01 3.6008584499359131e-01</leafValues></_>
        <_>
          <internalNodes>
            0 -1 33 -237506022 -2029019119 1073938950 -804106045
            2017593883 -483376879 1419644928 -951926050</internalNodes>
          <leafValues>
            -5.1366984844207764e-01 3.7805032730102539e-01</leafValues></_>
        <_>
          <internalNodes>
            0 -1 96 173580428 -665743330 218153183 1346765123 -62816243
            -619641785 1364917224 -1877597417</internalNodes>
          <leafValues>
            -5.7286077737808228e-01 3.5396894812583923e-01</leafValues></_>
        <_>
          <internalNodes>
            0 -1 34 -413159021 -1391801733 326677239 1310244863
            1610519770 1341038283 1576260671 -543424549</internalNodes>
          <leafValues>
            -4.1579625010490417e-01 4.8812878131866455e-01</leafValues></_>
        <_>
          <internalNodes>
            0 -1 67 -1488108801 -1191317252 934139646 1849480602
            -167608330 1540079756 1023508470 -1890077561</internalNodes>
          <leafValues>
            -3.3756044507026672e-01 5.5972307920455933e-01</leafValues></_>
        <_>
          <internalNodes>
            0 -1 40 -1156920628 -787410687 412095034 -2048851760
            -393682725 -1467840366 857801241 -2111088261</internalNodes>
          <leafValues>
            -5.2618366479873657e-01 3.7827470898628235e-01</leafValues></_>
        <_>
          <internalNodes>
            0 -1 43 -140913748 -1851402240 1634930724 376646513
            -1013446120 453021569 -1015833927 1665167501</internalNodes>
          <leafValues>
            -5.8430063724517822e-01 3.5878872871398926e-01</leafValues></_>
        <_>
          <internalNodes>
            0 -1 92 -1551893667 1985969979 125795063 1983112891
            -340149608 -1351092273 985643775 -93587861</internalNodes>
          <leafValues>
            -3.4547188878059387e-01 6.4021986722946167e-01</leafValues></_></weakClassifiers></_>
    <!-- stage 11 -->
    <_>
      <maxWeakCount>10</maxWeakCount>
      <stageThreshold>-8.7943159043788910e-02</stageThreshold>
      <weakClassifiers>
        <_>
          <internalNodes>
            0 -1 87 -8389626 924988192 -8428446 288321568 251592226
            1329069986 780100659 859526178</internalNodes>
          <leafValues>
            -4.3200001120567322e-01 6.4648908376693726e-01</leafValues></_>
        <_>
          <internalNodes>
            0 -1 116 -1693456478 -2052407774 1862229712 -2068546200
            1618663252 230096375 397647357 -932186573</internalNodes>
          <leafValues>
            -3.6969321966171265e-01 5.7502490282058716e-01</leafValues></_>
        <_>
          <internalNodes>
            0 -1 85 -370974502 -2096233448 1074122880 -1047870938
            1335386 -838230016 1214566463 58665215</internalNodes>
          <leafValues>
            -5.5382311344146729e-01 4.1806566715240479e-01</leafValues></_>
        <_>
          <internalNodes>
            0 -1 94 1369051328 1221558593 809521770 1363230920
            -1033422079 -2001198959 -2130466520 -1068641281</internalNodes>
          <leafValues>
            -5.6792008876800537e-01 3.8646191358566284e-01</leafValues></_>
        <_>
          <internalNodes>
            0 -1 55 -1336604276 201392233 340067158 -207080293
            -1979694419 -105873280 -586571552 981697411</internalNodes>
          <leafValues>
            -5.8637011051177979e-01 3.7394151091575623e-01</leafValues></_>
        <_>
          <internalNodes>
            0 -1 108 -1770504098 -604389600 -16783371 -42569731
            -739050852 -1610940419 -1560882241 -886406031</internalNodes>
          <leafValues>
            -4.5490494370460510e-01 5.0733023881912231e-01</leafValues></_>
        <_>
          <internalNodes>
            0 -1 6 738197170 -576907029 -553656337 -973938690 2137584595
            -1420754946 1463444387 -992477847</internalNodes>
          <leafValues>
            -3.9600795507431030e-01 5.6317877769470215e-01</leafValues></_>
        <_>
          <internalNodes>
            0 -1 31 -45309072 -1555693176 65553 401920290 -1065205558
            -2109700574 1346867409 -1798380853</internalNodes>
          <leafValues>
            -5.5966097116470337e-01 4.2855769395828247e-01</leafValues></_>
        <_>
          <internalNodes>
            0 -1 56 -535345682 -1728036835 1075911641 360792465
            304152721 1780492291 -104348437 486363260</internalNodes>
          <leafValues>
            -5.6775295734405518e-01 4.4983971118927002e-01</leafValues></_>
        <_>
          <internalNodes>
            0 -1 58 2093867025 1755643579 2030019095 2124939069
            1609465495 -47841353 1850978282 -277987389</internalNodes>
          <leafValues>
            -4.0662690997123718e-01 6.3280498981475830e-01</leafValues></_></weakClassifiers></_>
    <!-- stage 12 -->
    <_>
      <maxWeakCount>8</maxWeakCount>
      <stageThreshold>1.5979017317295074e-01</stageThreshold>
      <weakClassifiers>
        <_>
          <internalNodes>
            0 -1 83 -117441236 1999134536 -67109000 813821734 1610469184
            1178879744 834045524 1349985862</internalNodes>
          <leafValues>
            -4.8547717928886414e-01 7.3810690641403198e-01</leafValues></_>
        <_>
          <internalNodes>
            0 -1 35 456051891 -1344356498 1926646323 1343275003
            2125748288 1276007750 -680084914 1533009739</internalNodes>
          <leafValues>
            -4.4440034031867981e-01 5.6752878427505493e-01</leafValues></_>
        <_>
          <internalNodes>
            0 -1 74 1460231509 1032290293 1052739325 1060322273
            1053310104 -1401651595 716051629 730206904</internalNodes>
          <leafValues>
            -4.2546141147613525e-01 5.7091104984283447e-01</leafValues></_>
        <_>
          <internalNodes>
            0 -1 0 -1568495403 -16154622 285315345 -654032776 660711
            -368148479 1220706715 1736688277</internalNodes>
          <leafValues>
            -5.0127160549163818e-01 5.2031612396240234e-01</leafValues></_>
        <_>
          <internalNodes>
            0 -1 54 -1043299328 -914333695 285380688 -368045818
            -880022901 -134176704 1124762320 -915862973</internalNodes>
          <leafValues>
            -6.0118645429611206e-01 4.3966060876846313e-01</leafValues></_>
        <_>
          <internalNodes>
            0 -1 95 -427832401 -1115721837 -2030176529 -826429645
            -1619087863 -402661626 -1887449897 -1421357497</internalNodes>
          <leafValues>
            -4.1329371929168701e-01 7.2632956504821777e-01</leafValues></_>
        <_>
          <internalNodes>
            0 -1 47 1397080148 -1341980415 1949303391 1673072794
            -1859546792 555876353 -1274805992 -1340633176</internalNodes>
          <leafValues>
            -5.4258310794830322e-01 5.6051111221313477e-01</leafValues></_>
        <_>
          <internalNodes>
            0 -1 99 1485525833 1360208441 9519104 810625028 445358152
            1663076866 -2063400863 -1984200380</internalNodes>
          <leafValues>
            -6.2735509872436523e-01 4.3685284256935120e-01</leafValues></_></weakClassifiers></_></stages>
  <features>
    <_>
      <rect>
        0 0 3 3</rect></_>
    <_>
      <rect>
        0 0 3 7</rect></_>
    <_>
      <rect>
        0 0 7 9</rect></_>
    <_>
      <rect>
        0 0 11 7</rect></_>
    <_>
      <rect>
        0 1 11 10</rect></_>
    <_>
      <rect>
        0 2 3 5</rect></_>
    <_>
      <rect>
        0 2 4 9</rect></_>
    <_>
      <rect>
        0 2 6 8</rect></_>
    <_>
      <rect>
        0 3 4 3</rect></_>
    <_>
      <rect>
        0 6 5 7</rect></_>
    <_>
      <rect>
        0 8 1 2</rect></_>
    <_>
      <rect>
        0 12 1 2</rect></_>
    <_>
      <rect>
        0 14 1 2</rect></_>
    <_>
      <rect>
        0 14 9 6</rect></_>
    <_>
      <rect>
        0 17 4 3</rect></_>
    <_>
      <rect>
        0 21 2 2</rect></_>
    <_>
      <rect>
        1 0 8 7</rect></_>
    <_>
      <rect>
        1 3 7 3</rect></_>
    <_>
      <rect>
        1 5 3 9</rect></_>
    <_>
      <rect>
        1 8 5 6</rect></_>
    <_>
      <rect>
        1 9 2 6</rect></_>
    <_>
      <rect>
        1 12 4 6</rect></_>
    <_>
      <rect>
        1 14 5 6</rect></_>
    <_>
      <rect>
        1 19 6 3</rect></_>
    <_>
      <rect>
        2 0 10 10</rect></_>
    <_>
      <rect>
        2 3 7 9</rect></_>
    <_>
      <rect>
        2 15 2 4</rect></_>
    <_>
      <rect>
        2 20 2 2</rect></_>
    <_>
      <rect>
        2 28 4 1</rect></_>
    <_>
      <rect>
        3 0 6 3</rect></_>
    <_>
      <rect>
        3 1 9 4</rect></_>
    <_>
      <rect>
        3 5 4 5</rect></_>
    <_>
      <rect>
        3 5 5 6</rect></_>
    <_>
      <rect>
        3 14 2 3</rect></_>
    <_>
      <rect>
        3 18 2 3</rect></_>
    <_>
      <rect>
        3 21 2 2</rect></_>
    <_>
      <rect>
        4 3 5 6</rect></_>
    <_>
      <rect>
        4 17 7 5</rect></_>
    <_>
      <rect>
        4 25 2 2</rect></_>
    <_>
      <rect>
        4 29 5 1</rect></_>
    <_>
      <rect>
        5 5 6 8</rect></_>
    <_>
      <rect>
        5 7 7 7</rect></_>
    <_>
      <rect>
        5 8 6 5</rect></_>
    <_>
      <rect>
        5 12 5 5</rect></_>
    <_>
      <rect>
        5 17 9 5</rect></_>
    <_>
      <rect>
        5 22 1 1</rect></_>
    <_>
      <rect>
        6 9 7 6</rect></_>
    <_>
      <rect>
        6 10 6 7</rect></_>
    <_>
      <rect>
        6 13 4 5</rect></_>
    <_>
      <rect>
        6 15 7 4</rect></_>
    <_>
      <rect>
        6 16 4 4</rect></_>
    <_>
      <rect>
        6 24 6 2</rect></_>
    <_>
      <rect>
        7 0 1 1</rect></_>
    <_>
      <rect>
        7 2 3 2</rect></_>
    <_>
      <rect>
        7 3 3 3</rect></_>
    <_>
      <rect>
        7 9 7 6</rect></_>
    <_>
      <rect>
        7 20 6 3</rect></_>
    <_>
      <rect>
        8 11 5 5</rect></_>
    <_>
      <rect>
        8 12 8 4</rect></_>
    <_>
      <rect>
        9 2 3 3</rect></_>
    <_>
      <rect>
        9 2 4 9</rect></_>
    <_>
      <rect>
        9 3 5 6</rect></_>
    <_>
      <rect>
        9 9 5 5</rect></_>
    <_>
      <rect>
        9 17 5 4</rect></_>
    <_>
      <rect>
        9 17 5 5</rect></_>
    <_>
      <rect>
        9 29 4 1</rect></_>
    <_>
      <rect>
        10 0 1 1</rect></_>
    <_>
      <rect>
        10 3 5 8</rect></_>
    <_>
      <rect>
        10 4 4 6</rect></_>
    <_>
      <rect>
        10 4 6 6</rect></_>
    <_>
      <rect>
        10 10 4 6</rect></_>
    <_>
      <rect>
        10 13 5 5</rect></_>
    <_>
      <rect>
        10 27 3 1</rect></_>
    <_>
      <rect>
        11 4 1 1</rect></_>
    <_>
      <rect>
        11 28 4 1</rect></_>
    <_>
      <rect>
        12 0 2 1</rect></_>
    <_>
      <rect>
        12 3 7 3</rect></_>
    <_>
      <rect>
        13 0 2 1</rect></_>
    <_>
      <rect>
        13 0 4 1</rect></_>
    <_>
      <rect>
        13 2 5 3</rect></_>
    <_>
      <rect>
        13 26 5 2</rect></_>
    <_>
      <rect>
        14 3 6 8</rect></_>
    <_>
      <rect>
        14 8 5 5</rect></_>
    <_>
      <rect>
        15 2 6 6</rect></_>
    <_>
      <rect>
        15 2 6 8</rect></_>
    <_>
      <rect>
        15 4 3 9</rect></_>
    <_>
      <rect>
        15 4 5 5</rect></_>
    <_>
      <rect>
        15 14 5 5</rect></_>
    <_>
      <rect>
        15 16 5 5</rect></_>
    <_>
      <rect>
        15 17 5 3</rect></_>
    <_>
      <rect>
        16 0 2 1</rect></_>
    <_>
      <rect>
        16 28 3 1</rect></_>
    <_>
      <rect>
        17 1 4 2</rect></_>
    <_>
      <rect>
        17 29 4 1</rect></_>
    <_>
      <rect>
        18 8 5 7</rect></_>
    <_>
      <rect>
        18 9 2 3</rect></_>
    <_>
      <rect>
        18 10 3 4</rect></_>
    <_>
      <rect>
        18 28 3 1</rect></_>
    <_>
      <rect>
        19 2 4 4</rect></_>
    <_>
      <rect>
        19 6 4 4</rect></_>
    <_>
      <rect>
        19 16 4 3</rect></_>
    <_>
      <rect>
        20 2 1 3</rect></_>
    <_>
      <rect>
        20 29 1 1</rect></_>
    <_>
      <rect>
        21 0 2 2</rect></_>
    <_>
      <rect>
        21 15 4 4</rect></_>
    <_>
      <rect>
        21 16 3 4</rect></_>
    <_>
      <rect>
        21 17 4 5</rect></_>
    <_>
      <rect>
        21 23 3 3</rect></_>
    <_>
      <rect>
        22 0 2 2</rect></_>
    <_>
      <rect>
        24 12 3 5</rect></_>
    <_>
      <rect>
        24 23 3 3</rect></_>
    <_>
      <rect>
        25 16 2 4</rect></_>
    <_>
      <rect>
        26 19 1 1</rect></_>
    <_>
      <rect>
        26 22 2 2</rect></_>
    <_>
      <rect>
        27 21 2 2</rect></_>
    <_>
      <rect>
        30 12 1 2</rect></_>
    <_>
      <rect>
        30 13 1 4</rect></_></features></cascade>
</opencv_storage>
