<?xml version="1.0"?>
<opencv_storage>
<!-- Created using Computer Vision System Toolbox(tm) for MATLAB(R) -->
<!-- Version 8.6.0.267246 (R2015b) -->
<!-- Compatible with OpenCV 2.4 -->
<cascade>
  <stageType>BOOST</stageType>
  <featureType>HOG</featureType>
  <height>32</height>
  <width>33</width>
  <stageParams>
    <boostType>GAB</boostType>
    <minHitRate>9.9500000476837158e-01</minHitRate>
    <maxFalseAlarm>2.0000000298023224e-01</maxFalseAlarm>
    <weightTrimRate>9.4999999999999996e-01</weightTrimRate>
    <maxDepth>1</maxDepth>
    <maxWeakCount>100</maxWeakCount></stageParams>
  <featureParams>
    <maxCatCount>0</maxCatCount>
    <featSize>36</featSize></featureParams>
  <stageNum>10</stageNum>
  <stages>
    <!-- stage 0 -->
    <_>
      <maxWeakCount>17</maxWeakCount>
      <stageThreshold>-1.4896821975708008e+00</stageThreshold>
      <weakClassifiers>
        <_>
          <internalNodes>
            0 -1 344 4.0814988315105438e-02</internalNodes>
          <leafValues>
            -7.1240508556365967e-01 5.7030779123306274e-01</leafValues></_>
        <_>
          <internalNodes>
            0 -1 37 4.3872136622667313e-02</internalNodes>
          <leafValues>
            -5.0753605365753174e-01 4.5598661899566650e-01</leafValues></_>
        <_>
          <internalNodes>
            0 -1 349 3.1823277473449707e-02</internalNodes>
          <leafValues>
            -4.1515541076660156e-01 5.7625943422317505e-01</leafValues></_>
        <_>
          <internalNodes>
            0 -1 259 2.4801991879940033e-02</internalNodes>
          <leafValues>
            -5.1944583654403687e-01 3.7494856119155884e-01</leafValues></_>
        <_>
          <internalNodes>
            0 -1 242 6.8677770905196667e-03</internalNodes>
          <leafValues>
            5.9959530830383301e-01 -2.6416644454002380e-01</leafValues></_>
        <_>
          <internalNodes>
            0 -1 152 5.3701281547546387e-02</internalNodes>
          <leafValues>
            -2.7271655201911926e-01 4.5349645614624023e-01</leafValues></_>
        <_>
          <internalNodes>
            0 -1 19 5.3095709532499313e-02</internalNodes>
          <leafValues>
            1.8287779390811920e-01 -7.4590361118316650e-01</leafValues></_>
        <_>
          <internalNodes>
            0 -1 319 3.8003377616405487e-02</internalNodes>
          <leafValues>
            -3.6554965376853943e-01 2.9951164126396179e-01</leafValues></_>
        <_>
          <internalNodes>
            0 -1 31 1.1639058589935303e-02</internalNodes>
          <leafValues>
            3.9939391613006592e-01 -2.7313324809074402e-01</leafValues></_>
        <_>
          <internalNodes>
            0 -1 251 4.6638552099466324e-02</internalNodes>
          <leafValues>
            1.4516480267047882e-01 -7.3511534929275513e-01</leafValues></_>
        <_>
          <internalNodes>
            0 -1 239 4.2775668203830719e-02</internalNodes>
          <leafValues>
            1.3067629933357239e-01 -6.3065367937088013e-01</leafValues></_>
        <_>
          <internalNodes>
            0 -1 328 2.4000998586416245e-02</internalNodes>
          <leafValues>
            -3.6238065361976624e-01 3.1115058064460754e-01</leafValues></_>
        <_>
          <internalNodes>
            0 -1 107 2.8029140084981918e-02</internalNodes>
          <leafValues>
            2.0364014804363251e-01 -4.8790815472602844e-01</leafValues></_>
        <_>
          <internalNodes>
            0 -1 325 6.1208931729197502e-03</internalNodes>
          <leafValues>
            -8.1728845834732056e-01 1.2172044068574905e-01</leafValues></_>
        <_>
          <internalNodes>
            0 -1 49 4.4208277016878128e-02</internalNodes>
          <leafValues>
            1.0452934354543686e-01 -7.2909486293792725e-01</leafValues></_>
        <_>
          <internalNodes>
            0 -1 381 2.4696379899978638e-02</internalNodes>
          <leafValues>
            1.4018395543098450e-01 -5.8977627754211426e-01</leafValues></_>
        <_>
          <internalNodes>
            0 -1 313 4.7135412693023682e-02</internalNodes>
          <leafValues>
            1.2974789738655090e-01 -6.6588610410690308e-01</leafValues></_></weakClassifiers></_>
    <!-- stage 1 -->
    <_>
      <maxWeakCount>29</maxWeakCount>
      <stageThreshold>-1.3318367004394531e+00</stageThreshold>
      <weakClassifiers>
        <_>
          <internalNodes>
            0 -1 336 4.5075774192810059e-02</internalNodes>
          <leafValues>
            -6.3999998569488525e-01 3.9770668745040894e-01</leafValues></_>
        <_>
          <internalNodes>
            0 -1 272 1.1291074566543102e-02</internalNodes>
          <leafValues>
            3.2634961605072021e-01 -5.3837066888809204e-01</leafValues></_>
        <_>
          <internalNodes>
            0 -1 45 6.5535053610801697e-02</internalNodes>
          <leafValues>
            -2.0081982016563416e-01 8.5278701782226563e-01</leafValues></_>
        <_>
          <internalNodes>
            0 -1 86 9.3757241964340210e-02</internalNodes>
          <leafValues>
            -1.1649287492036819e-01 9.4375509023666382e-01</leafValues></_>
        <_>
          <internalNodes>
            0 -1 242 2.2068113088607788e-02</internalNodes>
          <leafValues>
            3.4785690903663635e-01 -3.3339396119117737e-01</leafValues></_>
        <_>
          <internalNodes>
            0 -1 276 3.2576587051153183e-02</internalNodes>
          <leafValues>
            -3.1126022338867188e-01 3.2402122020721436e-01</leafValues></_>
        <_>
          <internalNodes>
            0 -1 342 1.5443274751305580e-02</internalNodes>
          <leafValues>
            -5.4574537277221680e-01 1.9245763123035431e-01</leafValues></_>
        <_>
          <internalNodes>
            0 -1 113 1.6032753512263298e-02</internalNodes>
          <leafValues>
            2.2336058318614960e-01 -4.4623601436614990e-01</leafValues></_>
        <_>
          <internalNodes>
            0 -1 145 4.4859081506729126e-02</internalNodes>
          <leafValues>
            1.2450958043336868e-01 -7.3982745409011841e-01</leafValues></_>
        <_>
          <internalNodes>
            0 -1 282 7.8489538282155991e-03</internalNodes>
          <leafValues>
            -7.4468445777893066e-01 1.2766329944133759e-01</leafValues></_>
        <_>
          <internalNodes>
            0 -1 344 7.1947559714317322e-02</internalNodes>
          <leafValues>
            -1.4686065912246704e-01 6.7984223365783691e-01</leafValues></_>
        <_>
          <internalNodes>
            0 -1 18 4.9257636070251465e-02</internalNodes>
          <leafValues>
            1.2791885435581207e-01 -6.6210538148880005e-01</leafValues></_>
        <_>
          <internalNodes>
            0 -1 109 1.9207350909709930e-02</internalNodes>
          <leafValues>
            -4.4297328591346741e-01 1.5332542359828949e-01</leafValues></_>
        <_>
          <internalNodes>
            0 -1 155 4.2874179780483246e-02</internalNodes>
          <leafValues>
            -1.4205078780651093e-01 5.5108219385147095e-01</leafValues></_>
        <_>
          <internalNodes>
            0 -1 95 2.8251189738512039e-02</internalNodes>
          <leafValues>
            -2.5170359015464783e-01 2.9837101697921753e-01</leafValues></_>
        <_>
          <internalNodes>
            0 -1 9 1.9562747329473495e-02</internalNodes>
          <leafValues>
            1.7074979841709137e-01 -4.0070372819900513e-01</leafValues></_>
        <_>
          <internalNodes>
            0 -1 101 2.4078924208879471e-02</internalNodes>
          <leafValues>
            1.2146347016096115e-01 -4.9732702970504761e-01</leafValues></_>
        <_>
          <internalNodes>
            0 -1 42 3.1864948570728302e-02</internalNodes>
          <leafValues>
            1.3437902927398682e-01 -5.0219422578811646e-01</leafValues></_>
        <_>
          <internalNodes>
            0 -1 313 4.5779623091220856e-02</internalNodes>
          <leafValues>
            1.1240066587924957e-01 -5.7335090637207031e-01</leafValues></_>
        <_>
          <internalNodes>
            0 -1 251 6.2506735324859619e-02</internalNodes>
          <leafValues>
            5.8792196214199066e-02 -8.1260085105895996e-01</leafValues></_>
        <_>
          <internalNodes>
            0 -1 341 5.4761007428169250e-02</internalNodes>
          <leafValues>
            -1.1673908680677414e-01 5.1481604576110840e-01</leafValues></_>
        <_>
          <internalNodes>
            0 -1 388 2.4627968668937683e-02</internalNodes>
          <leafValues>
            1.4590966701507568e-01 -4.0572538971900940e-01</leafValues></_>
        <_>
          <internalNodes>
            0 -1 389 5.3877248428761959e-03</internalNodes>
          <leafValues>
            -6.3442730903625488e-01 1.0086908191442490e-01</leafValues></_>
        <_>
          <internalNodes>
            0 -1 14 3.8968208245933056e-03</internalNodes>
          <leafValues>
            -8.7003868818283081e-01 4.9919530749320984e-02</leafValues></_>
        <_>
          <internalNodes>
            0 -1 116 1.0265450924634933e-02</internalNodes>
          <leafValues>
            2.9736965894699097e-01 -1.9641867280006409e-01</leafValues></_>
        <_>
          <internalNodes>
            0 -1 386 8.7503530085086823e-03</internalNodes>
          <leafValues>
            -7.3146814107894897e-01 8.2118824124336243e-02</leafValues></_>
        <_>
          <internalNodes>
            0 -1 21 4.9734510481357574e-02</internalNodes>
          <leafValues>
            -2.2022002935409546e-01 2.8215011954307556e-01</leafValues></_>
        <_>
          <internalNodes>
            0 -1 349 3.9485156536102295e-02</internalNodes>
          <leafValues>
            -1.4184388518333435e-01 4.1751757264137268e-01</leafValues></_>
        <_>
          <internalNodes>
            0 -1 1 7.1444138884544373e-03</internalNodes>
          <leafValues>
            -4.3467000126838684e-01 1.3281507790088654e-01</leafValues></_></weakClassifiers></_>
    <!-- stage 2 -->
    <_>
      <maxWeakCount>46</maxWeakCount>
      <stageThreshold>-1.2953315973281860e+00</stageThreshold>
      <weakClassifiers>
        <_>
          <internalNodes>
            0 -1 344 3.6038257181644440e-02</internalNodes>
          <leafValues>
            -7.0419561862945557e-01 2.0226678252220154e-01</leafValues></_>
        <_>
          <internalNodes>
            0 -1 349 5.1551930606365204e-02</internalNodes>
          <leafValues>
            -3.2579198479652405e-01 5.2439284324645996e-01</leafValues></_>
        <_>
          <internalNodes>
            0 -1 50 9.3742087483406067e-03</internalNodes>
          <leafValues>
            4.1381269693374634e-01 -2.8901067376136780e-01</leafValues></_>
        <_>
          <internalNodes>
            0 -1 153 2.5997299700975418e-02</internalNodes>
          <leafValues>
            1.2946482002735138e-01 -7.0644193887710571e-01</leafValues></_>
        <_>
          <internalNodes>
            0 -1 107 2.1119091659784317e-02</internalNodes>
          <leafValues>
            2.0736895501613617e-01 -3.7466400861740112e-01</leafValues></_>
        <_>
          <internalNodes>
            0 -1 324 9.8883463069796562e-03</internalNodes>
          <leafValues>
            -6.3458472490310669e-01 1.3219459354877472e-01</leafValues></_>
        <_>
          <internalNodes>
            0 -1 371 4.1040569543838501e-02</internalNodes>
          <leafValues>
            -1.5740396082401276e-01 5.0956356525421143e-01</leafValues></_>
        <_>
          <internalNodes>
            0 -1 240 2.2230735048651695e-02</internalNodes>
          <leafValues>
            1.5588153898715973e-01 -4.8370054364204407e-01</leafValues></_>
        <_>
          <internalNodes>
            0 -1 319 4.2766101658344269e-02</internalNodes>
          <leafValues>
            -2.8588324785232544e-01 2.2845286130905151e-01</leafValues></_>
        <_>
          <internalNodes>
            0 -1 43 3.9361700415611267e-02</internalNodes>
          <leafValues>
            1.4042827486991882e-01 -4.4912555813789368e-01</leafValues></_>
        <_>
          <internalNodes>
            0 -1 163 1.5979835763573647e-02</internalNodes>
          <leafValues>
            -3.7094119191169739e-01 1.9502803683280945e-01</leafValues></_>
        <_>
          <internalNodes>
            0 -1 266 9.7694993019104004e-03</internalNodes>
          <leafValues>
            2.5999256968498230e-01 -2.3401647806167603e-01</leafValues></_>
        <_>
          <internalNodes>
            0 -1 215 4.4841556809842587e-03</internalNodes>
          <leafValues>
            -5.2441740036010742e-01 9.4342544674873352e-02</leafValues></_>
        <_>
          <internalNodes>
            0 -1 149 9.3432225286960602e-02</internalNodes>
          <leafValues>
            4.5670185238122940e-02 -8.8537532091140747e-01</leafValues></_>
        <_>
          <internalNodes>
            0 -1 379 6.2498357146978378e-03</internalNodes>
          <leafValues>
            -7.7118468284606934e-01 4.8386108130216599e-02</leafValues></_>
        <_>
          <internalNodes>
            0 -1 171 1.2469980865716934e-01</internalNodes>
          <leafValues>
            3.4363061189651489e-02 -9.1172546148300171e-01</leafValues></_>
        <_>
          <internalNodes>
            0 -1 279 3.0953643843531609e-02</internalNodes>
          <leafValues>
            5.2961442619562149e-02 -7.0327681303024292e-01</leafValues></_>
        <_>
          <internalNodes>
            0 -1 273 1.9597759470343590e-02</internalNodes>
          <leafValues>
            1.7108343541622162e-01 -3.1214031577110291e-01</leafValues></_>
        <_>
          <internalNodes>
            0 -1 225 5.7457402348518372e-02</internalNodes>
          <leafValues>
            -7.9088851809501648e-02 5.8800369501113892e-01</leafValues></_>
        <_>
          <internalNodes>
            0 -1 80 1.0635416209697723e-01</internalNodes>
          <leafValues>
            -4.8919085413217545e-02 8.2785171270370483e-01</leafValues></_>
        <_>
          <internalNodes>
            0 -1 274 2.3237375542521477e-02</internalNodes>
          <leafValues>
            -4.0394529700279236e-01 1.5575578808784485e-01</leafValues></_>
        <_>
          <internalNodes>
            0 -1 98 2.8190631419420242e-02</internalNodes>
          <leafValues>
            2.5361412763595581e-01 -2.1466472744941711e-01</leafValues></_>
        <_>
          <internalNodes>
            0 -1 62 1.0329943895339966e-01</internalNodes>
          <leafValues>
            -7.7733233571052551e-02 6.4223420619964600e-01</leafValues></_>
        <_>
          <internalNodes>
            0 -1 102 3.4191973507404327e-02</internalNodes>
          <leafValues>
            7.8386455774307251e-02 -7.1473985910415649e-01</leafValues></_>
        <_>
          <internalNodes>
            0 -1 249 6.9834567606449127e-02</internalNodes>
          <leafValues>
            -7.2852566838264465e-02 7.4513179063796997e-01</leafValues></_>
        <_>
          <internalNodes>
            0 -1 56 1.4785211533308029e-02</internalNodes>
          <leafValues>
            -3.1839999556541443e-01 1.6365928947925568e-01</leafValues></_>
        <_>
          <internalNodes>
            0 -1 254 2.6470506563782692e-02</internalNodes>
          <leafValues>
            -1.5159857273101807e-01 2.9413801431655884e-01</leafValues></_>
        <_>
          <internalNodes>
            0 -1 15 7.7609792351722717e-02</internalNodes>
          <leafValues>
            -6.2776573002338409e-02 6.9628888368606567e-01</leafValues></_>
        <_>
          <internalNodes>
            0 -1 152 4.2970549315214157e-02</internalNodes>
          <leafValues>
            -2.4161042273044586e-01 2.0605641603469849e-01</leafValues></_>
        <_>
          <internalNodes>
            0 -1 228 1.1659391224384308e-02</internalNodes>
          <leafValues>
            3.3770859241485596e-01 -1.6847760975360870e-01</leafValues></_>
        <_>
          <internalNodes>
            0 -1 372 1.7223289608955383e-01</internalNodes>
          <leafValues>
            -5.6984603404998779e-02 8.3712875843048096e-01</leafValues></_>
        <_>
          <internalNodes>
            0 -1 385 1.0432919487357140e-02</internalNodes>
          <leafValues>
            -3.5038542747497559e-01 1.3392128050327301e-01</leafValues></_>
        <_>
          <internalNodes>
            0 -1 107 4.1498482227325439e-02</internalNodes>
          <leafValues>
            8.3001926541328430e-02 -4.7876730561256409e-01</leafValues></_>
        <_>
          <internalNodes>
            0 -1 28 6.4613528549671173e-02</internalNodes>
          <leafValues>
            4.2812027037143707e-02 -8.3991903066635132e-01</leafValues></_>
        <_>
          <internalNodes>
            0 -1 340 9.2834718525409698e-03</internalNodes>
          <leafValues>
            3.3072948455810547e-01 -1.3325572013854980e-01</leafValues></_>
        <_>
          <internalNodes>
            0 -1 158 9.8779223859310150e-02</internalNodes>
          <leafValues>
            7.5534194707870483e-02 -6.5890997648239136e-01</leafValues></_>
        <_>
          <internalNodes>
            0 -1 173 9.0858221054077148e-02</internalNodes>
          <leafValues>
            -6.9923438131809235e-02 6.6481435298919678e-01</leafValues></_>
        <_>
          <internalNodes>
            0 -1 202 9.5353070646524429e-03</internalNodes>
          <leafValues>
            2.4372847378253937e-01 -2.1603378653526306e-01</leafValues></_>
        <_>
          <internalNodes>
            0 -1 283 3.8124355487525463e-03</internalNodes>
          <leafValues>
            -5.7341217994689941e-01 7.7386163175106049e-02</leafValues></_>
        <_>
          <internalNodes>
            0 -1 177 1.1320284008979797e-01</internalNodes>
          <leafValues>
            -8.2392752170562744e-02 5.3360432386398315e-01</leafValues></_>
        <_>
          <internalNodes>
            0 -1 390 1.1758936569094658e-02</internalNodes>
          <leafValues>
            -5.3032582998275757e-01 8.5849449038505554e-02</leafValues></_>
        <_>
          <internalNodes>
            0 -1 198 3.2627962529659271e-02</internalNodes>
          <leafValues>
            7.6041065156459808e-02 -4.9789085984230042e-01</leafValues></_>
        <_>
          <internalNodes>
            0 -1 331 3.8841024041175842e-02</internalNodes>
          <leafValues>
            6.8513661623001099e-02 -6.0469037294387817e-01</leafValues></_>
        <_>
          <internalNodes>
            0 -1 17 6.2858544290065765e-02</internalNodes>
          <leafValues>
            -7.9528056085109711e-02 6.4591997861862183e-01</leafValues></_>
        <_>
          <internalNodes>
            0 -1 374 3.3821277320384979e-02</internalNodes>
          <leafValues>
            -1.9633592665195465e-01 2.3315490782260895e-01</leafValues></_>
        <_>
          <internalNodes>
            0 -1 311 3.5861607640981674e-02</internalNodes>
          <leafValues>
            1.6399176418781281e-01 -2.9086858034133911e-01</leafValues></_></weakClassifiers></_>
    <!-- stage 3 -->
    <_>
      <maxWeakCount>39</maxWeakCount>
      <stageThreshold>-1.3868635892868042e+00</stageThreshold>
      <weakClassifiers>
        <_>
          <internalNodes>
            0 -1 105 5.7679049670696259e-02</internalNodes>
          <leafValues>
            -5.3023254871368408e-01 7.2862029075622559e-01</leafValues></_>
        <_>
          <internalNodes>
            0 -1 341 5.7507753372192383e-02</internalNodes>
          <leafValues>
            -2.8038528561592102e-01 6.9072830677032471e-01</leafValues></_>
        <_>
          <internalNodes>
            0 -1 285 4.2653240263462067e-02</internalNodes>
          <leafValues>
            -1.9440038502216339e-01 4.7545981407165527e-01</leafValues></_>
        <_>
          <internalNodes>
            0 -1 57 2.5433167815208435e-02</internalNodes>
          <leafValues>
            1.5359631180763245e-01 -4.5886766910552979e-01</leafValues></_>
        <_>
          <internalNodes>
            0 -1 13 2.1216461434960365e-02</internalNodes>
          <leafValues>
            1.7938384413719177e-01 -3.7315654754638672e-01</leafValues></_>
        <_>
          <internalNodes>
            0 -1 357 2.5878598913550377e-02</internalNodes>
          <leafValues>
            1.7943452298641205e-01 -4.4852247834205627e-01</leafValues></_>
        <_>
          <internalNodes>
            0 -1 42 5.3334210067987442e-02</internalNodes>
          <leafValues>
            9.9594317376613617e-02 -7.9713791608810425e-01</leafValues></_>
        <_>
          <internalNodes>
            0 -1 227 5.0889745354652405e-02</internalNodes>
          <leafValues>
            7.2506457567214966e-02 -6.8460422754287720e-01</leafValues></_>
        <_>
          <internalNodes>
            0 -1 392 1.8369995057582855e-02</internalNodes>
          <leafValues>
            1.5854270756244659e-01 -4.3231874704360962e-01</leafValues></_>
        <_>
          <internalNodes>
            0 -1 153 1.3489414937794209e-02</internalNodes>
          <leafValues>
            1.3198910653591156e-01 -3.4391424059867859e-01</leafValues></_>
        <_>
          <internalNodes>
            0 -1 197 9.7803913056850433e-02</internalNodes>
          <leafValues>
            5.0360858440399170e-02 -9.3840897083282471e-01</leafValues></_>
        <_>
          <internalNodes>
            0 -1 252 4.5450523495674133e-02</internalNodes>
          <leafValues>
            1.0453294217586517e-01 -5.2908182144165039e-01</leafValues></_>
        <_>
          <internalNodes>
            0 -1 236 8.7283421307802200e-03</internalNodes>
          <leafValues>
            -5.8818632364273071e-01 9.1799959540367126e-02</leafValues></_>
        <_>
          <internalNodes>
            0 -1 204 1.8848232924938202e-02</internalNodes>
          <leafValues>
            1.8799348175525665e-01 -3.2053542137145996e-01</leafValues></_>
        <_>
          <internalNodes>
            0 -1 377 2.2118989378213882e-02</internalNodes>
          <leafValues>
            1.5647618472576141e-01 -3.4947243332862854e-01</leafValues></_>
        <_>
          <internalNodes>
            0 -1 327 8.0190189182758331e-03</internalNodes>
          <leafValues>
            -5.5629873275756836e-01 9.3816310167312622e-02</leafValues></_>
        <_>
          <internalNodes>
            0 -1 353 1.8987180665135384e-02</internalNodes>
          <leafValues>
            -4.7686222195625305e-01 1.0307870060205460e-01</leafValues></_>
        <_>
          <internalNodes>
            0 -1 26 8.6188137531280518e-02</internalNodes>
          <leafValues>
            -9.9646680057048798e-02 7.6129674911499023e-01</leafValues></_>
        <_>
          <internalNodes>
            0 -1 396 2.2522868588566780e-02</internalNodes>
          <leafValues>
            -3.6811217665672302e-01 1.8742971122264862e-01</leafValues></_>
        <_>
          <internalNodes>
            0 -1 264 1.5847169561311603e-03</internalNodes>
          <leafValues>
            -6.7786461114883423e-01 6.3705503940582275e-02</leafValues></_>
        <_>
          <internalNodes>
            0 -1 30 7.2375852614641190e-03</internalNodes>
          <leafValues>
            3.0932673811912537e-01 -2.0492143929004669e-01</leafValues></_>
        <_>
          <internalNodes>
            0 -1 226 1.3990008272230625e-02</internalNodes>
          <leafValues>
            -3.2197910547256470e-01 1.7486333847045898e-01</leafValues></_>
        <_>
          <internalNodes>
            0 -1 322 3.0405428260564804e-02</internalNodes>
          <leafValues>
            6.7346937954425812e-02 -6.2121957540512085e-01</leafValues></_>
        <_>
          <internalNodes>
            0 -1 386 1.3150683045387268e-01</internalNodes>
          <leafValues>
            4.2481228709220886e-02 -8.5464251041412354e-01</leafValues></_>
        <_>
          <internalNodes>
            0 -1 166 2.8864160180091858e-02</internalNodes>
          <leafValues>
            1.7560157179832458e-01 -2.7334982156753540e-01</leafValues></_>
        <_>
          <internalNodes>
            0 -1 5 6.2485754489898682e-02</internalNodes>
          <leafValues>
            -1.1617102473974228e-01 3.8097092509269714e-01</leafValues></_>
        <_>
          <internalNodes>
            0 -1 343 2.9134666547179222e-02</internalNodes>
          <leafValues>
            -2.1059039235115051e-01 2.3761747777462006e-01</leafValues></_>
        <_>
          <internalNodes>
            0 -1 118 5.8364547789096832e-02</internalNodes>
          <leafValues>
            -6.7966870963573456e-02 6.2848538160324097e-01</leafValues></_>
        <_>
          <internalNodes>
            0 -1 331 2.0983234047889709e-02</internalNodes>
          <leafValues>
            1.5452274680137634e-01 -3.5378628969192505e-01</leafValues></_>
        <_>
          <internalNodes>
            0 -1 220 5.6595474481582642e-02</internalNodes>
          <leafValues>
            6.1807036399841309e-02 -6.6147696971893311e-01</leafValues></_>
        <_>
          <internalNodes>
            0 -1 200 2.0769417285919189e-02</internalNodes>
          <leafValues>
            -2.8889530897140503e-01 1.3277569413185120e-01</leafValues></_>
        <_>
          <internalNodes>
            0 -1 247 4.2804609984159470e-02</internalNodes>
          <leafValues>
            -1.8135882914066315e-01 2.3251578211784363e-01</leafValues></_>
        <_>
          <internalNodes>
            0 -1 71 7.4076086282730103e-02</internalNodes>
          <leafValues>
            8.7068162858486176e-02 -5.3405487537384033e-01</leafValues></_>
        <_>
          <internalNodes>
            0 -1 84 4.4093523174524307e-03</internalNodes>
          <leafValues>
            2.8000247478485107e-01 -1.5446621179580688e-01</leafValues></_>
        <_>
          <internalNodes>
            0 -1 373 4.6993337571620941e-02</internalNodes>
          <leafValues>
            9.7125433385372162e-02 -4.6733772754669189e-01</leafValues></_>
        <_>
          <internalNodes>
            0 -1 198 2.3976104333996773e-02</internalNodes>
          <leafValues>
            1.0996253788471222e-01 -3.8342475891113281e-01</leafValues></_>
        <_>
          <internalNodes>
            0 -1 345 6.8268463015556335e-02</internalNodes>
          <leafValues>
            4.4019281864166260e-02 -8.1309765577316284e-01</leafValues></_>
        <_>
          <internalNodes>
            0 -1 154 2.0561279729008675e-02</internalNodes>
          <leafValues>
            1.0526389628648758e-01 -3.9938744902610779e-01</leafValues></_>
        <_>
          <internalNodes>
            0 -1 46 1.5813609957695007e-01</internalNodes>
          <leafValues>
            -6.3499465584754944e-02 7.5292408466339111e-01</leafValues></_></weakClassifiers></_>
    <!-- stage 4 -->
    <_>
      <maxWeakCount>53</maxWeakCount>
      <stageThreshold>-1.3602155447006226e+00</stageThreshold>
      <weakClassifiers>
        <_>
          <internalNodes>
            0 -1 35 5.7755094021558762e-03</internalNodes>
          <leafValues>
            3.1388565897941589e-01 -6.1828923225402832e-01</leafValues></_>
        <_>
          <internalNodes>
            0 -1 162 4.4596724212169647e-02</internalNodes>
          <leafValues>
            -3.5470032691955566e-01 3.6346051096916199e-01</leafValues></_>
        <_>
          <internalNodes>
            0 -1 259 4.6149156987667084e-02</internalNodes>
          <leafValues>
            -3.0503299832344055e-01 3.8741061091423035e-01</leafValues></_>
        <_>
          <internalNodes>
            0 -1 330 1.3041827827692032e-02</internalNodes>
          <leafValues>
            2.2358436882495880e-01 -4.0965893864631653e-01</leafValues></_>
        <_>
          <internalNodes>
            0 -1 142 5.9529669582843781e-02</internalNodes>
          <leafValues>
            -1.8477475643157959e-01 3.6954352259635925e-01</leafValues></_>
        <_>
          <internalNodes>
            0 -1 252 1.3715241104364395e-02</internalNodes>
          <leafValues>
            2.6876252889633179e-01 -2.6022928953170776e-01</leafValues></_>
        <_>
          <internalNodes>
            0 -1 236 4.4809274375438690e-02</internalNodes>
          <leafValues>
            -1.8817345798015594e-01 2.9620006680488586e-01</leafValues></_>
        <_>
          <internalNodes>
            0 -1 95 4.9147073179483414e-02</internalNodes>
          <leafValues>
            -1.4232002198696136e-01 4.1006162762641907e-01</leafValues></_>
        <_>
          <internalNodes>
            0 -1 192 6.5534517168998718e-02</internalNodes>
          <leafValues>
            -1.0170577466487885e-01 5.7207608222961426e-01</leafValues></_>
        <_>
          <internalNodes>
            0 -1 302 4.0216960012912750e-02</internalNodes>
          <leafValues>
            1.0815262794494629e-01 -6.3470357656478882e-01</leafValues></_>
        <_>
          <internalNodes>
            0 -1 371 5.7752672582864761e-02</internalNodes>
          <leafValues>
            -1.3029244542121887e-01 5.5684518814086914e-01</leafValues></_>
        <_>
          <internalNodes>
            0 -1 284 1.2076207436621189e-02</internalNodes>
          <leafValues>
            -4.7220233082771301e-01 1.1692953109741211e-01</leafValues></_>
        <_>
          <internalNodes>
            0 -1 37 3.4444585442543030e-02</internalNodes>
          <leafValues>
            -2.3695127665996552e-01 2.0330061018466949e-01</leafValues></_>
        <_>
          <internalNodes>
            0 -1 15 1.3813579082489014e-01</internalNodes>
          <leafValues>
            -9.4444721937179565e-02 6.6763919591903687e-01</leafValues></_>
        <_>
          <internalNodes>
            0 -1 380 4.3074917048215866e-02</internalNodes>
          <leafValues>
            8.2290865480899811e-02 -7.5529903173446655e-01</leafValues></_>
        <_>
          <internalNodes>
            0 -1 279 1.7517404630780220e-02</internalNodes>
          <leafValues>
            1.1310967057943344e-01 -3.7209171056747437e-01</leafValues></_>
        <_>
          <internalNodes>
            0 -1 188 2.4049550294876099e-02</internalNodes>
          <leafValues>
            -1.8573573231697083e-01 2.5868907570838928e-01</leafValues></_>
        <_>
          <internalNodes>
            0 -1 125 4.9657173454761505e-02</internalNodes>
          <leafValues>
            5.9797581285238266e-02 -7.9313981533050537e-01</leafValues></_>
        <_>
          <internalNodes>
            0 -1 113 4.0558047592639923e-02</internalNodes>
          <leafValues>
            4.6871770173311234e-02 -7.8414058685302734e-01</leafValues></_>
        <_>
          <internalNodes>
            0 -1 327 1.0024659335613251e-02</internalNodes>
          <leafValues>
            -4.4467636942863464e-01 7.8679189085960388e-02</leafValues></_>
        <_>
          <internalNodes>
            0 -1 11 2.5622833520174026e-02</internalNodes>
          <leafValues>
            6.4863130450248718e-02 -5.1426297426223755e-01</leafValues></_>
        <_>
          <internalNodes>
            0 -1 7 1.5725013613700867e-01</internalNodes>
          <leafValues>
            -5.7005815207958221e-02 7.3304581642150879e-01</leafValues></_>
        <_>
          <internalNodes>
            0 -1 134 1.0269315540790558e-01</internalNodes>
          <leafValues>
            5.3630936890840530e-02 -8.9400601387023926e-01</leafValues></_>
        <_>
          <internalNodes>
            0 -1 40 2.4139597080647945e-03</internalNodes>
          <leafValues>
            3.5452726483345032e-01 -1.1131173372268677e-01</leafValues></_>
        <_>
          <internalNodes>
            0 -1 80 6.8296536803245544e-02</internalNodes>
          <leafValues>
            -8.4495991468429565e-02 4.7608381509780884e-01</leafValues></_>
        <_>
          <internalNodes>
            0 -1 294 4.7390595078468323e-02</internalNodes>
          <leafValues>
            8.5711605846881866e-02 -4.3083536624908447e-01</leafValues></_>
        <_>
          <internalNodes>
            0 -1 367 5.7885482907295227e-02</internalNodes>
          <leafValues>
            -1.4030389487743378e-01 2.6960811018943787e-01</leafValues></_>
        <_>
          <internalNodes>
            0 -1 76 8.1569373607635498e-02</internalNodes>
          <leafValues>
            -4.4582158327102661e-02 7.9787158966064453e-01</leafValues></_>
        <_>
          <internalNodes>
            0 -1 398 1.8339654430747032e-02</internalNodes>
          <leafValues>
            -3.0622619390487671e-01 1.2759324908256531e-01</leafValues></_>
        <_>
          <internalNodes>
            0 -1 88 2.1641467511653900e-01</internalNodes>
          <leafValues>
            -3.7093237042427063e-02 9.8718702793121338e-01</leafValues></_>
        <_>
          <internalNodes>
            0 -1 43 8.0252721905708313e-02</internalNodes>
          <leafValues>
            6.2899835407733917e-02 -7.6247894763946533e-01</leafValues></_>
        <_>
          <internalNodes>
            0 -1 13 4.5525908470153809e-02</internalNodes>
          <leafValues>
            4.8541091382503510e-02 -5.7857632637023926e-01</leafValues></_>
        <_>
          <internalNodes>
            0 -1 238 1.7519529908895493e-02</internalNodes>
          <leafValues>
            1.0115522146224976e-01 -3.0876979231834412e-01</leafValues></_>
        <_>
          <internalNodes>
            0 -1 90 6.9457434117794037e-02</internalNodes>
          <leafValues>
            4.5720212161540985e-02 -7.1666508913040161e-01</leafValues></_>
        <_>
          <internalNodes>
            0 -1 296 7.1498230099678040e-03</internalNodes>
          <leafValues>
            -3.6505413055419922e-01 8.3967506885528564e-02</leafValues></_>
        <_>
          <internalNodes>
            0 -1 286 4.3289773166179657e-02</internalNodes>
          <leafValues>
            -1.1764278262853622e-01 3.3181110024452209e-01</leafValues></_>
        <_>
          <internalNodes>
            0 -1 335 2.5305839255452156e-02</internalNodes>
          <leafValues>
            -1.9507999718189240e-01 2.0325231552124023e-01</leafValues></_>
        <_>
          <internalNodes>
            0 -1 19 4.3435424566268921e-02</internalNodes>
          <leafValues>
            7.7452749013900757e-02 -4.9243083596229553e-01</leafValues></_>
        <_>
          <internalNodes>
            0 -1 156 7.7909663319587708e-02</internalNodes>
          <leafValues>
            3.7916466593742371e-02 -8.1127417087554932e-01</leafValues></_>
        <_>
          <internalNodes>
            0 -1 316 6.5744206309318542e-02</internalNodes>
          <leafValues>
            -9.1273583471775055e-02 3.9235016703605652e-01</leafValues></_>
        <_>
          <internalNodes>
            0 -1 296 7.0676714181900024e-02</internalNodes>
          <leafValues>
            3.6815077066421509e-02 -9.9048137664794922e-01</leafValues></_>
        <_>
          <internalNodes>
            0 -1 113 4.4257296249270439e-03</internalNodes>
          <leafValues>
            2.4988964200019836e-01 -1.4687868952751160e-01</leafValues></_>
        <_>
          <internalNodes>
            0 -1 383 5.2434194833040237e-02</internalNodes>
          <leafValues>
            4.4494774192571640e-02 -7.6106035709381104e-01</leafValues></_>
        <_>
          <internalNodes>
            0 -1 279 3.5378630273044109e-03</internalNodes>
          <leafValues>
            3.7901768088340759e-01 -9.9989302456378937e-02</leafValues></_>
        <_>
          <internalNodes>
            0 -1 0 5.9961965307593346e-03</internalNodes>
          <leafValues>
            -4.4556874036788940e-01 7.8470893204212189e-02</leafValues></_>
        <_>
          <internalNodes>
            0 -1 92 7.4199117720127106e-02</internalNodes>
          <leafValues>
            4.3103743344545364e-02 -6.2671643495559692e-01</leafValues></_>
        <_>
          <internalNodes>
            0 -1 151 2.4107820354402065e-03</internalNodes>
          <leafValues>
            -6.1814200878143311e-01 3.7505224347114563e-02</leafValues></_>
        <_>
          <internalNodes>
            0 -1 190 3.5219609737396240e-02</internalNodes>
          <leafValues>
            -1.5302152931690216e-01 1.9706749916076660e-01</leafValues></_>
        <_>
          <internalNodes>
            0 -1 69 9.0937241911888123e-02</internalNodes>
          <leafValues>
            -4.3160084635019302e-02 7.4515032768249512e-01</leafValues></_>
        <_>
          <internalNodes>
            0 -1 110 1.4848412945866585e-02</internalNodes>
          <leafValues>
            -4.8447781801223755e-01 7.4153117835521698e-02</leafValues></_>
        <_>
          <internalNodes>
            0 -1 86 1.0172997415065765e-01</internalNodes>
          <leafValues>
            -5.5935092270374298e-02 5.5388253927230835e-01</leafValues></_>
        <_>
          <internalNodes>
            0 -1 208 7.5623653829097748e-03</internalNodes>
          <leafValues>
            1.8895407021045685e-01 -1.7798331379890442e-01</leafValues></_>
        <_>
          <internalNodes>
            0 -1 231 6.7082215100526810e-03</internalNodes>
          <leafValues>
            -4.0265148878097534e-01 7.0549167692661285e-02</leafValues></_></weakClassifiers></_>
    <!-- stage 5 -->
    <_>
      <maxWeakCount>57</maxWeakCount>
      <stageThreshold>-1.1240421533584595e+00</stageThreshold>
      <weakClassifiers>
        <_>
          <internalNodes>
            0 -1 310 4.0694564580917358e-02</internalNodes>
          <leafValues>
            -6.0626029968261719e-01 1.7251908779144287e-01</leafValues></_>
        <_>
          <internalNodes>
            0 -1 249 5.1350563764572144e-02</internalNodes>
          <leafValues>
            -2.4036850035190582e-01 5.5827242136001587e-01</leafValues></_>
        <_>
          <internalNodes>
            0 -1 386 1.3786480762064457e-02</internalNodes>
          <leafValues>
            -5.9954321384429932e-01 1.2741118669509888e-01</leafValues></_>
        <_>
          <internalNodes>
            0 -1 242 1.1243241839110851e-02</internalNodes>
          <leafValues>
            2.8215962648391724e-01 -2.3472265899181366e-01</leafValues></_>
        <_>
          <internalNodes>
            0 -1 157 1.1172292754054070e-02</internalNodes>
          <leafValues>
            -3.4108337759971619e-01 1.7752359807491302e-01</leafValues></_>
        <_>
          <internalNodes>
            0 -1 337 9.6927151083946228e-02</internalNodes>
          <leafValues>
            -1.6087056696414948e-01 5.7311588525772095e-01</leafValues></_>
        <_>
          <internalNodes>
            0 -1 359 4.4950600713491440e-02</internalNodes>
          <leafValues>
            1.3394284248352051e-01 -8.1769686937332153e-01</leafValues></_>
        <_>
          <internalNodes>
            0 -1 209 8.4874714957550168e-05</internalNodes>
          <leafValues>
            -5.6640875339508057e-01 7.2084806859493256e-02</leafValues></_>
        <_>
          <internalNodes>
            0 -1 91 6.5452381968498230e-02</internalNodes>
          <leafValues>
            -1.0649557411670685e-01 5.4736739397048950e-01</leafValues></_>
        <_>
          <internalNodes>
            0 -1 357 3.8222067058086395e-02</internalNodes>
          <leafValues>
            7.5516924262046814e-02 -6.9882190227508545e-01</leafValues></_>
        <_>
          <internalNodes>
            0 -1 255 1.1938014067709446e-02</internalNodes>
          <leafValues>
            -3.0918860435485840e-01 1.5520161390304565e-01</leafValues></_>
        <_>
          <internalNodes>
            0 -1 370 1.2381630018353462e-02</internalNodes>
          <leafValues>
            -2.6329377293586731e-01 1.9061189889907837e-01</leafValues></_>
        <_>
          <internalNodes>
            0 -1 328 1.7248775810003281e-02</internalNodes>
          <leafValues>
            -3.2312598824501038e-01 1.6137142479419708e-01</leafValues></_>
        <_>
          <internalNodes>
            0 -1 350 1.2209882959723473e-02</internalNodes>
          <leafValues>
            -4.1900166869163513e-01 1.1403378099203110e-01</leafValues></_>
        <_>
          <internalNodes>
            0 -1 387 1.4466106891632080e-02</internalNodes>
          <leafValues>
            1.7315974831581116e-01 -2.5085452198982239e-01</leafValues></_>
        <_>
          <internalNodes>
            0 -1 172 5.9843454509973526e-02</internalNodes>
          <leafValues>
            -1.1456596106290817e-01 4.1388669610023499e-01</leafValues></_>
        <_>
          <internalNodes>
            0 -1 336 6.6502287983894348e-02</internalNodes>
          <leafValues>
            -1.1392373591661453e-01 3.9698278903961182e-01</leafValues></_>
        <_>
          <internalNodes>
            0 -1 181 1.1578669399023056e-01</internalNodes>
          <leafValues>
            5.4825246334075928e-02 -6.6112786531448364e-01</leafValues></_>
        <_>
          <internalNodes>
            0 -1 53 3.2973112538456917e-03</internalNodes>
          <leafValues>
            -4.0562221407890320e-01 8.3028405904769897e-02</leafValues></_>
        <_>
          <internalNodes>
            0 -1 106 1.5876013785600662e-02</internalNodes>
          <leafValues>
            1.3426794111728668e-01 -2.8452721238136292e-01</leafValues></_>
        <_>
          <internalNodes>
            0 -1 381 2.6789795607328415e-02</internalNodes>
          <leafValues>
            6.6346630454063416e-02 -4.9059325456619263e-01</leafValues></_>
        <_>
          <internalNodes>
            0 -1 19 5.2472382783889771e-02</internalNodes>
          <leafValues>
            4.5909319072961807e-02 -6.3996553421020508e-01</leafValues></_>
        <_>
          <internalNodes>
            0 -1 204 4.1405051946640015e-02</internalNodes>
          <leafValues>
            6.7377366125583649e-02 -4.6635586023330688e-01</leafValues></_>
        <_>
          <internalNodes>
            0 -1 364 3.9785493165254593e-02</internalNodes>
          <leafValues>
            5.0064120441675186e-02 -6.2182152271270752e-01</leafValues></_>
        <_>
          <internalNodes>
            0 -1 267 6.3808911363594234e-05</internalNodes>
          <leafValues>
            -6.4487618207931519e-01 4.2990218847990036e-02</leafValues></_>
        <_>
          <internalNodes>
            0 -1 1 6.4485701732337475e-03</internalNodes>
          <leafValues>
            -3.2552751898765564e-01 9.2037819325923920e-02</leafValues></_>
        <_>
          <internalNodes>
            0 -1 116 5.3922757506370544e-03</internalNodes>
          <leafValues>
            2.3058733344078064e-01 -1.2432228773832321e-01</leafValues></_>
        <_>
          <internalNodes>
            0 -1 301 8.3315512165427208e-03</internalNodes>
          <leafValues>
            -4.9128422141075134e-01 6.5435811877250671e-02</leafValues></_>
        <_>
          <internalNodes>
            0 -1 108 9.4414733350276947e-02</internalNodes>
          <leafValues>
            -3.7671584635972977e-02 8.3460086584091187e-01</leafValues></_>
        <_>
          <internalNodes>
            0 -1 349 7.9291258007287979e-03</internalNodes>
          <leafValues>
            -4.3450486660003662e-01 8.4509730339050293e-02</leafValues></_>
        <_>
          <internalNodes>
            0 -1 224 2.8738411143422127e-02</internalNodes>
          <leafValues>
            1.9809241592884064e-01 -1.7249353229999542e-01</leafValues></_>
        <_>
          <internalNodes>
            0 -1 159 2.8827175498008728e-02</internalNodes>
          <leafValues>
            1.6484950482845306e-01 -2.0517385005950928e-01</leafValues></_>
        <_>
          <internalNodes>
            0 -1 49 3.3548407256603241e-02</internalNodes>
          <leafValues>
            5.6373316794633865e-02 -5.2351731061935425e-01</leafValues></_>
        <_>
          <internalNodes>
            0 -1 120 1.8933113664388657e-02</internalNodes>
          <leafValues>
            -2.0989447832107544e-01 1.4193086326122284e-01</leafValues></_>
        <_>
          <internalNodes>
            0 -1 179 3.6959401331841946e-03</internalNodes>
          <leafValues>
            3.7477007508277893e-01 -7.6495110988616943e-02</leafValues></_>
        <_>
          <internalNodes>
            0 -1 118 1.3465628027915955e-01</internalNodes>
          <leafValues>
            -2.7928732335567474e-02 9.1062980890274048e-01</leafValues></_>
        <_>
          <internalNodes>
            0 -1 393 2.2035766392946243e-02</internalNodes>
          <leafValues>
            1.1124053597450256e-01 -2.6812967658042908e-01</leafValues></_>
        <_>
          <internalNodes>
            0 -1 24 3.5924925468862057e-03</internalNodes>
          <leafValues>
            -5.2558821439743042e-01 5.7628773152828217e-02</leafValues></_>
        <_>
          <internalNodes>
            0 -1 167 3.5659298300743103e-02</internalNodes>
          <leafValues>
            6.5084531903266907e-02 -3.9182597398757935e-01</leafValues></_>
        <_>
          <internalNodes>
            0 -1 246 3.4785293042659760e-02</internalNodes>
          <leafValues>
            4.7408174723386765e-02 -5.3623008728027344e-01</leafValues></_>
        <_>
          <internalNodes>
            0 -1 369 8.0942194908857346e-03</internalNodes>
          <leafValues>
            -2.9591736197471619e-01 1.0585892945528030e-01</leafValues></_>
        <_>
          <internalNodes>
            0 -1 332 1.9279843196272850e-02</internalNodes>
          <leafValues>
            1.0062702745199203e-01 -3.0105832219123840e-01</leafValues></_>
        <_>
          <internalNodes>
            0 -1 8 3.2507076859474182e-02</internalNodes>
          <leafValues>
            5.9581499546766281e-02 -4.3952643871307373e-01</leafValues></_>
        <_>
          <internalNodes>
            0 -1 185 1.2147523462772369e-01</internalNodes>
          <leafValues>
            2.4170849472284317e-02 -9.1395974159240723e-01</leafValues></_>
        <_>
          <internalNodes>
            0 -1 258 1.0201334953308105e-03</internalNodes>
          <leafValues>
            -7.0403087139129639e-01 2.8493072837591171e-02</leafValues></_>
        <_>
          <internalNodes>
            0 -1 220 7.7131837606430054e-02</internalNodes>
          <leafValues>
            2.9007868841290474e-02 -7.5781458616256714e-01</leafValues></_>
        <_>
          <internalNodes>
            0 -1 139 1.1089207604527473e-02</internalNodes>
          <leafValues>
            1.8727070093154907e-01 -1.4986939728260040e-01</leafValues></_>
        <_>
          <internalNodes>
            0 -1 368 7.8339606523513794e-02</internalNodes>
          <leafValues>
            -3.8990050554275513e-02 7.1802186965942383e-01</leafValues></_>
        <_>
          <internalNodes>
            0 -1 307 1.5898787975311279e-01</internalNodes>
          <leafValues>
            -3.5280037671327591e-02 6.1675393581390381e-01</leafValues></_>
        <_>
          <internalNodes>
            0 -1 160 1.2770563364028931e-02</internalNodes>
          <leafValues>
            -1.9049265980720520e-01 1.3562813401222229e-01</leafValues></_>
        <_>
          <internalNodes>
            0 -1 278 1.2470498681068420e-02</internalNodes>
          <leafValues>
            1.3558188080787659e-01 -2.0017942786216736e-01</leafValues></_>
        <_>
          <internalNodes>
            0 -1 15 1.8677030503749847e-01</internalNodes>
          <leafValues>
            -5.2039846777915955e-02 6.0013371706008911e-01</leafValues></_>
        <_>
          <internalNodes>
            0 -1 55 6.4369356259703636e-03</internalNodes>
          <leafValues>
            -2.7578783035278320e-01 1.1021696776151657e-01</leafValues></_>
        <_>
          <internalNodes>
            0 -1 195 1.2441653758287430e-02</internalNodes>
          <leafValues>
            -5.5939322710037231e-01 4.4129889458417892e-02</leafValues></_>
        <_>
          <internalNodes>
            0 -1 315 1.1197695508599281e-02</internalNodes>
          <leafValues>
            -2.9647931456565857e-01 7.6624490320682526e-02</leafValues></_>
        <_>
          <internalNodes>
            0 -1 25 6.9517277181148529e-02</internalNodes>
          <leafValues>
            -1.3007287681102753e-01 1.9544580578804016e-01</leafValues></_>
        <_>
          <internalNodes>
            0 -1 288 1.2947185337543488e-01</internalNodes>
          <leafValues>
            3.3196255564689636e-02 -7.9265105724334717e-01</leafValues></_></weakClassifiers></_>
    <!-- stage 6 -->
    <_>
      <maxWeakCount>72</maxWeakCount>
      <stageThreshold>-1.2158652544021606e+00</stageThreshold>
      <weakClassifiers>
        <_>
          <internalNodes>
            0 -1 45 5.9431403875350952e-02</internalNodes>
          <leafValues>
            -5.2380955219268799e-01 4.9333333969116211e-01</leafValues></_>
        <_>
          <internalNodes>
            0 -1 110 6.1858993023633957e-02</internalNodes>
          <leafValues>
            -2.9039052128791809e-01 3.7632054090499878e-01</leafValues></_>
        <_>
          <internalNodes>
            0 -1 217 8.7769106030464172e-02</internalNodes>
          <leafValues>
            -1.8082457780838013e-01 5.3982985019683838e-01</leafValues></_>
        <_>
          <internalNodes>
            0 -1 305 2.3761257529258728e-02</internalNodes>
          <leafValues>
            -3.6066272854804993e-01 2.6699742674827576e-01</leafValues></_>
        <_>
          <internalNodes>
            0 -1 66 6.4980939030647278e-02</internalNodes>
          <leafValues>
            -1.4110207557678223e-01 4.6129056811332703e-01</leafValues></_>
        <_>
          <internalNodes>
            0 -1 313 2.1286018192768097e-02</internalNodes>
          <leafValues>
            2.5427475571632385e-01 -2.2856585681438446e-01</leafValues></_>
        <_>
          <internalNodes>
            0 -1 40 8.0875389277935028e-02</internalNodes>
          <leafValues>
            -4.5285381376743317e-02 6.3807737827301025e-01</leafValues></_>
        <_>
          <internalNodes>
            0 -1 247 5.4140981286764145e-02</internalNodes>
          <leafValues>
            -1.9539101421833038e-01 2.8305664658546448e-01</leafValues></_>
        <_>
          <internalNodes>
            0 -1 290 2.2316195070743561e-02</internalNodes>
          <leafValues>
            1.1282321810722351e-01 -4.4475314021110535e-01</leafValues></_>
        <_>
          <internalNodes>
            0 -1 358 2.9364619404077530e-02</internalNodes>
          <leafValues>
            1.2969301640987396e-01 -3.5861665010452271e-01</leafValues></_>
        <_>
          <internalNodes>
            0 -1 88 1.8731549382209778e-01</internalNodes>
          <leafValues>
            -4.6604458242654800e-02 9.4614428281784058e-01</leafValues></_>
        <_>
          <internalNodes>
            0 -1 3 9.0105399489402771e-02</internalNodes>
          <leafValues>
            6.8180933594703674e-02 -7.4881798028945923e-01</leafValues></_>
        <_>
          <internalNodes>
            0 -1 52 8.7442080257460475e-05</internalNodes>
          <leafValues>
            -5.2798843383789063e-01 6.6259577870368958e-02</leafValues></_>
        <_>
          <internalNodes>
            0 -1 60 5.4715771228075027e-02</internalNodes>
          <leafValues>
            4.9482312053442001e-02 -5.1700681447982788e-01</leafValues></_>
        <_>
          <internalNodes>
            0 -1 362 2.5463905185461044e-02</internalNodes>
          <leafValues>
            1.0583106428384781e-01 -3.5758122801780701e-01</leafValues></_>
        <_>
          <internalNodes>
            0 -1 155 8.7608344852924347e-02</internalNodes>
          <leafValues>
            -6.2455356121063232e-02 5.7775974273681641e-01</leafValues></_>
        <_>
          <internalNodes>
            0 -1 325 3.4428108483552933e-03</internalNodes>
          <leafValues>
            -7.8898757696151733e-01 4.5973949134349823e-02</leafValues></_>
        <_>
          <internalNodes>
            0 -1 2 8.7464263197034597e-04</internalNodes>
          <leafValues>
            -5.0009292364120483e-01 5.9652231633663177e-02</leafValues></_>
        <_>
          <internalNodes>
            0 -1 392 1.2946315109729767e-02</internalNodes>
          <leafValues>
            1.5195941925048828e-01 -2.1509204804897308e-01</leafValues></_>
        <_>
          <internalNodes>
            0 -1 345 5.2879631519317627e-02</internalNodes>
          <leafValues>
            5.1732044667005539e-02 -6.2967598438262939e-01</leafValues></_>
        <_>
          <internalNodes>
            0 -1 57 5.0443321466445923e-02</internalNodes>
          <leafValues>
            3.2807294279336929e-02 -8.3306324481964111e-01</leafValues></_>
        <_>
          <internalNodes>
            0 -1 67 1.4292505569756031e-02</internalNodes>
          <leafValues>
            1.4769460260868073e-01 -1.9875583052635193e-01</leafValues></_>
        <_>
          <internalNodes>
            0 -1 137 4.0420651435852051e-02</internalNodes>
          <leafValues>
            -1.2272333353757858e-01 2.4711209535598755e-01</leafValues></_>
        <_>
          <internalNodes>
            0 -1 313 4.7732371836900711e-02</internalNodes>
          <leafValues>
            7.8407384455204010e-02 -4.6333417296409607e-01</leafValues></_>
        <_>
          <internalNodes>
            0 -1 365 7.2642594575881958e-02</internalNodes>
          <leafValues>
            -6.0319513082504272e-02 5.0753104686737061e-01</leafValues></_>
        <_>
          <internalNodes>
            0 -1 44 4.6990737318992615e-02</internalNodes>
          <leafValues>
            5.8950379490852356e-02 -5.1611560583114624e-01</leafValues></_>
        <_>
          <internalNodes>
            0 -1 262 9.5339715480804443e-03</internalNodes>
          <leafValues>
            -2.2211959958076477e-01 1.2540553510189056e-01</leafValues></_>
        <_>
          <internalNodes>
            0 -1 323 6.1829602345824242e-03</internalNodes>
          <leafValues>
            2.6216119527816772e-01 -1.1354274302721024e-01</leafValues></_>
        <_>
          <internalNodes>
            0 -1 394 4.4882394373416901e-02</internalNodes>
          <leafValues>
            2.3146985098719597e-02 -1.</leafValues></_>
        <_>
          <internalNodes>
            0 -1 107 3.2890126109123230e-02</internalNodes>
          <leafValues>
            5.7592365890741348e-02 -3.9600494503974915e-01</leafValues></_>
        <_>
          <internalNodes>
            0 -1 111 4.0022162720561028e-03</internalNodes>
          <leafValues>
            -3.9352020621299744e-01 6.1893083155155182e-02</leafValues></_>
        <_>
          <internalNodes>
            0 -1 346 8.8492974638938904e-02</internalNodes>
          <leafValues>
            -6.7704632878303528e-02 3.6373582482337952e-01</leafValues></_>
        <_>
          <internalNodes>
            0 -1 207 8.9268043637275696e-02</internalNodes>
          <leafValues>
            4.1096031665802002e-02 -7.7212584018707275e-01</leafValues></_>
        <_>
          <internalNodes>
            0 -1 228 3.3834099769592285e-02</internalNodes>
          <leafValues>
            8.8206917047500610e-02 -2.7732968330383301e-01</leafValues></_>
        <_>
          <internalNodes>
            0 -1 131 1.8175083398818970e-01</internalNodes>
          <leafValues>
            -3.2072361558675766e-02 9.6438026428222656e-01</leafValues></_>
        <_>
          <internalNodes>
            0 -1 221 1.7927482258528471e-04</internalNodes>
          <leafValues>
            -5.8985406160354614e-01 5.2935015410184860e-02</leafValues></_>
        <_>
          <internalNodes>
            0 -1 119 2.7736900374293327e-02</internalNodes>
          <leafValues>
            9.3246236443519592e-02 -2.6353377103805542e-01</leafValues></_>
        <_>
          <internalNodes>
            0 -1 169 6.2703132629394531e-02</internalNodes>
          <leafValues>
            4.4614005833864212e-02 -5.5480933189392090e-01</leafValues></_>
        <_>
          <internalNodes>
            0 -1 193 7.2407774627208710e-02</internalNodes>
          <leafValues>
            -7.2825416922569275e-02 4.4305863976478577e-01</leafValues></_>
        <_>
          <internalNodes>
            0 -1 253 5.6041963398456573e-02</internalNodes>
          <leafValues>
            -1.1103109270334244e-01 2.6747924089431763e-01</leafValues></_>
        <_>
          <internalNodes>
            0 -1 232 3.0256859026849270e-03</internalNodes>
          <leafValues>
            -4.2306962609291077e-01 6.9333396852016449e-02</leafValues></_>
        <_>
          <internalNodes>
            0 -1 105 5.5821612477302551e-02</internalNodes>
          <leafValues>
            -7.3350422084331512e-02 3.8500300049781799e-01</leafValues></_>
        <_>
          <internalNodes>
            0 -1 46 8.9676544070243835e-02</internalNodes>
          <leafValues>
            -8.0073080956935883e-02 3.4781569242477417e-01</leafValues></_>
        <_>
          <internalNodes>
            0 -1 55 3.6194361746311188e-02</internalNodes>
          <leafValues>
            7.9164542257785797e-02 -3.9763188362121582e-01</leafValues></_>
        <_>
          <internalNodes>
            0 -1 179 5.7285148650407791e-03</internalNodes>
          <leafValues>
            2.8426143527030945e-01 -1.0061495006084442e-01</leafValues></_>
        <_>
          <internalNodes>
            0 -1 303 3.2337732613086700e-02</internalNodes>
          <leafValues>
            7.9002760350704193e-02 -3.2998874783515930e-01</leafValues></_>
        <_>
          <internalNodes>
            0 -1 203 5.4048657417297363e-02</internalNodes>
          <leafValues>
            3.2304827123880386e-02 -8.6257374286651611e-01</leafValues></_>
        <_>
          <internalNodes>
            0 -1 85 1.2937352061271667e-01</internalNodes>
          <leafValues>
            -4.2370811104774475e-02 8.2001620531082153e-01</leafValues></_>
        <_>
          <internalNodes>
            0 -1 10 2.1326509886421263e-04</internalNodes>
          <leafValues>
            -3.3159825205802917e-01 8.3458937704563141e-02</leafValues></_>
        <_>
          <internalNodes>
            0 -1 349 2.4374725297093391e-02</internalNodes>
          <leafValues>
            -1.9541330635547638e-01 1.2319263815879822e-01</leafValues></_>
        <_>
          <internalNodes>
            0 -1 375 5.7067524641752243e-02</internalNodes>
          <leafValues>
            2.6093253865838051e-02 -8.5664039850234985e-01</leafValues></_>
        <_>
          <internalNodes>
            0 -1 127 5.4542750120162964e-02</internalNodes>
          <leafValues>
            -9.8380155861377716e-02 2.9726007580757141e-01</leafValues></_>
        <_>
          <internalNodes>
            0 -1 94 9.8223388195037842e-02</internalNodes>
          <leafValues>
            4.6779524534940720e-02 -5.8434915542602539e-01</leafValues></_>
        <_>
          <internalNodes>
            0 -1 141 2.8777968138456345e-02</internalNodes>
          <leafValues>
            6.4823225140571594e-02 -3.6177399754524231e-01</leafValues></_>
        <_>
          <internalNodes>
            0 -1 50 5.6944582611322403e-03</internalNodes>
          <leafValues>
            2.1337619423866272e-01 -1.1889000982046127e-01</leafValues></_>
        <_>
          <internalNodes>
            0 -1 83 4.0125906467437744e-02</internalNodes>
          <leafValues>
            -7.6155476272106171e-02 3.0121910572052002e-01</leafValues></_>
        <_>
          <internalNodes>
            0 -1 343 2.3095507174730301e-02</internalNodes>
          <leafValues>
            -2.2698608040809631e-01 1.1671087890863419e-01</leafValues></_>
        <_>
          <internalNodes>
            0 -1 243 1.3887022435665131e-01</internalNodes>
          <leafValues>
            -3.6956753581762314e-02 7.5849169492721558e-01</leafValues></_>
        <_>
          <internalNodes>
            0 -1 145 4.8276811838150024e-02</internalNodes>
          <leafValues>
            5.3223535418510437e-02 -5.6065464019775391e-01</leafValues></_>
        <_>
          <internalNodes>
            0 -1 111 4.5798338949680328e-02</internalNodes>
          <leafValues>
            4.8945628106594086e-02 -4.7018519043922424e-01</leafValues></_>
        <_>
          <internalNodes>
            0 -1 288 2.8607605025172234e-02</internalNodes>
          <leafValues>
            1.5981559455394745e-01 -1.6114667057991028e-01</leafValues></_>
        <_>
          <internalNodes>
            0 -1 81 1.8202480673789978e-01</internalNodes>
          <leafValues>
            2.4009795859456062e-02 -9.5976871252059937e-01</leafValues></_>
        <_>
          <internalNodes>
            0 -1 212 6.7012891173362732e-02</internalNodes>
          <leafValues>
            2.7542889118194580e-02 -6.2037628889083862e-01</leafValues></_>
        <_>
          <internalNodes>
            0 -1 318 4.1653227061033249e-02</internalNodes>
          <leafValues>
            -1.2562994658946991e-01 2.0517979562282562e-01</leafValues></_>
        <_>
          <internalNodes>
            0 -1 371 8.0453515052795410e-02</internalNodes>
          <leafValues>
            -3.9876516908407211e-02 5.3009402751922607e-01</leafValues></_>
        <_>
          <internalNodes>
            0 -1 386 8.0845970660448074e-03</internalNodes>
          <leafValues>
            -6.0130286216735840e-01 4.3450769037008286e-02</leafValues></_>
        <_>
          <internalNodes>
            0 -1 221 4.5317158102989197e-02</internalNodes>
          <leafValues>
            2.6237295940518379e-02 -7.1567308902740479e-01</leafValues></_>
        <_>
          <internalNodes>
            0 -1 13 4.5852504670619965e-02</internalNodes>
          <leafValues>
            3.5659730434417725e-02 -5.3812658786773682e-01</leafValues></_>
        <_>
          <internalNodes>
            0 -1 114 1.0392988100647926e-02</internalNodes>
          <leafValues>
            1.0710465908050537e-01 -2.0512318611145020e-01</leafValues></_>
        <_>
          <internalNodes>
            0 -1 64 9.2716440558433533e-02</internalNodes>
          <leafValues>
            -3.7551850080490112e-02 6.5345883369445801e-01</leafValues></_>
        <_>
          <internalNodes>
            0 -1 176 6.1324767768383026e-02</internalNodes>
          <leafValues>
            4.7954116016626358e-02 -5.6164026260375977e-01</leafValues></_>
        <_>
          <internalNodes>
            0 -1 334 1.2527158483862877e-02</internalNodes>
          <leafValues>
            -1.9989846646785736e-01 1.0955795645713806e-01</leafValues></_></weakClassifiers></_>
    <!-- stage 7 -->
    <_>
      <maxWeakCount>100</maxWeakCount>
      <stageThreshold>-1.2260682582855225e+00</stageThreshold>
      <weakClassifiers>
        <_>
          <internalNodes>
            0 -1 249 7.3989167809486389e-02</internalNodes>
          <leafValues>
            -3.8887476921081543e-01 5.4883718490600586e-01</leafValues></_>
        <_>
          <internalNodes>
            0 -1 344 4.0527444332838058e-02</internalNodes>
          <leafValues>
            -3.1049057841300964e-01 2.9081135988235474e-01</leafValues></_>
        <_>
          <internalNodes>
            0 -1 341 4.2546458542346954e-02</internalNodes>
          <leafValues>
            -2.0659078657627106e-01 2.8560397028923035e-01</leafValues></_>
        <_>
          <internalNodes>
            0 -1 192 6.9900900125503540e-02</internalNodes>
          <leafValues>
            -1.0722400248050690e-01 4.1533309221267700e-01</leafValues></_>
        <_>
          <internalNodes>
            0 -1 157 1.4220446348190308e-02</internalNodes>
          <leafValues>
            -2.8116628527641296e-01 1.4612337946891785e-01</leafValues></_>
        <_>
          <internalNodes>
            0 -1 25 5.2648484706878662e-02</internalNodes>
          <leafValues>
            -1.1735417693853378e-01 2.6804983615875244e-01</leafValues></_>
        <_>
          <internalNodes>
            0 -1 38 9.2108651995658875e-02</internalNodes>
          <leafValues>
            -1.0847213119268417e-01 4.5160746574401855e-01</leafValues></_>
        <_>
          <internalNodes>
            0 -1 275 2.2365149110555649e-02</internalNodes>
          <leafValues>
            2.0341725647449493e-01 -1.4898076653480530e-01</leafValues></_>
        <_>
          <internalNodes>
            0 -1 335 3.4866042435169220e-02</internalNodes>
          <leafValues>
            -1.3086342811584473e-01 2.1817418932914734e-01</leafValues></_>
        <_>
          <internalNodes>
            0 -1 51 1.0086307302117348e-02</internalNodes>
          <leafValues>
            -3.8854181766510010e-01 6.8473666906356812e-02</leafValues></_>
        <_>
          <internalNodes>
            0 -1 98 2.0090615376830101e-02</internalNodes>
          <leafValues>
            2.2613537311553955e-01 -1.4251439273357391e-01</leafValues></_>
        <_>
          <internalNodes>
            0 -1 198 4.9055881798267365e-02</internalNodes>
          <leafValues>
            3.2525867223739624e-02 -6.5968394279479980e-01</leafValues></_>
        <_>
          <internalNodes>
            0 -1 153 3.3111948519945145e-02</internalNodes>
          <leafValues>
            3.2931726425886154e-02 -6.3636630773544312e-01</leafValues></_>
        <_>
          <internalNodes>
            0 -1 251 4.9927573651075363e-02</internalNodes>
          <leafValues>
            4.6193383634090424e-02 -5.1879274845123291e-01</leafValues></_>
        <_>
          <internalNodes>
            0 -1 178 6.3364565372467041e-02</internalNodes>
          <leafValues>
            -8.7291739881038666e-02 2.6615017652511597e-01</leafValues></_>
        <_>
          <internalNodes>
            0 -1 61 6.5275579690933228e-02</internalNodes>
          <leafValues>
            -6.5038338303565979e-02 3.7143036723136902e-01</leafValues></_>
        <_>
          <internalNodes>
            0 -1 289 9.3231759965419769e-02</internalNodes>
          <leafValues>
            -7.6602540910243988e-02 3.2569181919097900e-01</leafValues></_>
        <_>
          <internalNodes>
            0 -1 138 3.9052672684192657e-02</internalNodes>
          <leafValues>
            -9.5710031688213348e-02 3.2442852854728699e-01</leafValues></_>
        <_>
          <internalNodes>
            0 -1 126 3.0866133049130440e-02</internalNodes>
          <leafValues>
            -1.1899019777774811e-01 2.0572426915168762e-01</leafValues></_>
        <_>
          <internalNodes>
            0 -1 88 2.2188678383827209e-01</internalNodes>
          <leafValues>
            -1.6280600801110268e-02 9.7440278530120850e-01</leafValues></_>
        <_>
          <internalNodes>
            0 -1 25 3.6632204428315163e-03</internalNodes>
          <leafValues>
            -7.2240716218948364e-01 4.1661694645881653e-02</leafValues></_>
        <_>
          <internalNodes>
            0 -1 5 1.4339795708656311e-01</internalNodes>
          <leafValues>
            2.2202335298061371e-02 -6.5820527076721191e-01</leafValues></_>
        <_>
          <internalNodes>
            0 -1 108 1.0352773964405060e-01</internalNodes>
          <leafValues>
            -3.1319458037614822e-02 7.6328986883163452e-01</leafValues></_>
        <_>
          <internalNodes>
            0 -1 83 3.7002922035753727e-03</internalNodes>
          <leafValues>
            2.6444613933563232e-01 -8.0988258123397827e-02</leafValues></_>
        <_>
          <internalNodes>
            0 -1 279 4.3062172830104828e-02</internalNodes>
          <leafValues>
            2.1269271150231361e-02 -8.7924504280090332e-01</leafValues></_>
        <_>
          <internalNodes>
            0 -1 43 7.0730030536651611e-02</internalNodes>
          <leafValues>
            2.6801828294992447e-02 -5.7869976758956909e-01</leafValues></_>
        <_>
          <internalNodes>
            0 -1 107 6.3955429941415787e-03</internalNodes>
          <leafValues>
            2.1790684759616852e-01 -1.1563929915428162e-01</leafValues></_>
        <_>
          <internalNodes>
            0 -1 295 3.2418988645076752e-02</internalNodes>
          <leafValues>
            6.4044281840324402e-02 -3.4474146366119385e-01</leafValues></_>
        <_>
          <internalNodes>
            0 -1 280 6.6488593816757202e-02</internalNodes>
          <leafValues>
            2.1945377811789513e-02 -8.4068143367767334e-01</leafValues></_>
        <_>
          <internalNodes>
            0 -1 319 4.4972140341997147e-02</internalNodes>
          <leafValues>
            -1.6365931928157806e-01 1.2627342343330383e-01</leafValues></_>
        <_>
          <internalNodes>
            0 -1 211 2.2424077615141869e-03</internalNodes>
          <leafValues>
            -3.5288986563682556e-01 5.7498622685670853e-02</leafValues></_>
        <_>
          <internalNodes>
            0 -1 216 7.7548399567604065e-02</internalNodes>
          <leafValues>
            -6.5118797123432159e-02 3.2092216610908508e-01</leafValues></_>
        <_>
          <internalNodes>
            0 -1 282 1.2887390330433846e-02</internalNodes>
          <leafValues>
            -3.3492824435234070e-01 6.6441863775253296e-02</leafValues></_>
        <_>
          <internalNodes>
            0 -1 360 4.6855546534061432e-03</internalNodes>
          <leafValues>
            4.1215163469314575e-01 -4.7868534922599792e-02</leafValues></_>
        <_>
          <internalNodes>
            0 -1 257 1.4331240206956863e-02</internalNodes>
          <leafValues>
            9.7242832183837891e-02 -2.0059207081794739e-01</leafValues></_>
        <_>
          <internalNodes>
            0 -1 214 7.0446836762130260e-03</internalNodes>
          <leafValues>
            -2.3399983346462250e-01 8.7239876389503479e-02</leafValues></_>
        <_>
          <internalNodes>
            0 -1 23 1.2802156805992126e-01</internalNodes>
          <leafValues>
            -5.0196927040815353e-02 4.1103243827819824e-01</leafValues></_>
        <_>
          <internalNodes>
            0 -1 205 5.5055975914001465e-02</internalNodes>
          <leafValues>
            2.6187444105744362e-02 -8.9255684614181519e-01</leafValues></_>
        <_>
          <internalNodes>
            0 -1 182 6.8238242529332638e-03</internalNodes>
          <leafValues>
            -2.7067190408706665e-01 6.4395904541015625e-02</leafValues></_>
        <_>
          <internalNodes>
            0 -1 260 4.2100239545106888e-02</internalNodes>
          <leafValues>
            3.7871219217777252e-02 -5.4607808589935303e-01</leafValues></_>
        <_>
          <internalNodes>
            0 -1 45 7.9014763236045837e-02</internalNodes>
          <leafValues>
            -5.6724332273006439e-02 3.6540654301643372e-01</leafValues></_>
        <_>
          <internalNodes>
            0 -1 342 1.3750502839684486e-02</internalNodes>
          <leafValues>
            -3.6934334039688110e-01 5.1671020686626434e-02</leafValues></_>
        <_>
          <internalNodes>
            0 -1 363 1.6078498214483261e-02</internalNodes>
          <leafValues>
            1.8136665225028992e-01 -1.1085346341133118e-01</leafValues></_>
        <_>
          <internalNodes>
            0 -1 73 8.9537203311920166e-02</internalNodes>
          <leafValues>
            2.6040989905595779e-02 -8.0148333311080933e-01</leafValues></_>
        <_>
          <internalNodes>
            0 -1 62 4.6923425048589706e-02</internalNodes>
          <leafValues>
            -9.5453768968582153e-02 2.1673190593719482e-01</leafValues></_>
        <_>
          <internalNodes>
            0 -1 22 1.4597600698471069e-01</internalNodes>
          <leafValues>
            -2.2853281348943710e-02 7.7172785997390747e-01</leafValues></_>
        <_>
          <internalNodes>
            0 -1 163 8.6887530982494354e-02</internalNodes>
          <leafValues>
            3.8211043924093246e-02 -5.2930909395217896e-01</leafValues></_>
        <_>
          <internalNodes>
            0 -1 293 4.0186755359172821e-02</internalNodes>
          <leafValues>
            -8.1009469926357269e-02 2.4709650874137878e-01</leafValues></_>
        <_>
          <internalNodes>
            0 -1 144 4.4872552156448364e-02</internalNodes>
          <leafValues>
            3.3247470855712891e-02 -5.8847022056579590e-01</leafValues></_>
        <_>
          <internalNodes>
            0 -1 261 1.6452869749628007e-04</internalNodes>
          <leafValues>
            -6.3528084754943848e-01 2.4365302175283432e-02</leafValues></_>
        <_>
          <internalNodes>
            0 -1 394 3.2950863242149353e-02</internalNodes>
          <leafValues>
            2.7591258287429810e-02 -5.7516801357269287e-01</leafValues></_>
        <_>
          <internalNodes>
            0 -1 366 4.5399335213005543e-03</internalNodes>
          <leafValues>
            -6.5148651599884033e-01 2.5565315037965775e-02</leafValues></_>
        <_>
          <internalNodes>
            0 -1 314 9.6360564231872559e-02</internalNodes>
          <leafValues>
            -4.1688960045576096e-02 5.4679048061370850e-01</leafValues></_>
        <_>
          <internalNodes>
            0 -1 235 6.4100220799446106e-02</internalNodes>
          <leafValues>
            3.0386084690690041e-02 -6.6089397668838501e-01</leafValues></_>
        <_>
          <internalNodes>
            0 -1 77 2.5313266087323427e-04</internalNodes>
          <leafValues>
            -5.7591921091079712e-01 2.2722566500306129e-02</leafValues></_>
        <_>
          <internalNodes>
            0 -1 299 8.9350389316678047e-03</internalNodes>
          <leafValues>
            3.7684586644172668e-01 -4.1414272040128708e-02</leafValues></_>
        <_>
          <internalNodes>
            0 -1 152 5.3057961165904999e-02</internalNodes>
          <leafValues>
            -1.3910698890686035e-01 1.4453898370265961e-01</leafValues></_>
        <_>
          <internalNodes>
            0 -1 6 1.1415900290012360e-01</internalNodes>
          <leafValues>
            -3.6662720143795013e-02 4.5068114995956421e-01</leafValues></_>
        <_>
          <internalNodes>
            0 -1 8 1.7389125423505902e-04</internalNodes>
          <leafValues>
            -4.9473828077316284e-01 3.5877078771591187e-02</leafValues></_>
        <_>
          <internalNodes>
            0 -1 20 3.3604227006435394e-02</internalNodes>
          <leafValues>
            2.9844712466001511e-02 -5.2713620662689209e-01</leafValues></_>
        <_>
          <internalNodes>
            0 -1 252 6.8884298205375671e-02</internalNodes>
          <leafValues>
            3.3350083976984024e-02 -4.7749069333076477e-01</leafValues></_>
        <_>
          <internalNodes>
            0 -1 175 2.0655955374240875e-01</internalNodes>
          <leafValues>
            -2.0945305004715919e-02 9.0965276956558228e-01</leafValues></_>
        <_>
          <internalNodes>
            0 -1 298 3.4230716526508331e-02</internalNodes>
          <leafValues>
            4.2251694947481155e-02 -4.3278455734252930e-01</leafValues></_>
        <_>
          <internalNodes>
            0 -1 143 1.0650646686553955e-01</internalNodes>
          <leafValues>
            1.4983059838414192e-02 -8.5964065790176392e-01</leafValues></_>
        <_>
          <internalNodes>
            0 -1 204 5.0946264527738094e-03</internalNodes>
          <leafValues>
            2.0622113347053528e-01 -8.1946857273578644e-02</leafValues></_>
        <_>
          <internalNodes>
            0 -1 93 1.5400942414999008e-02</internalNodes>
          <leafValues>
            -1.2948846817016602e-01 1.1623027175664902e-01</leafValues></_>
        <_>
          <internalNodes>
            0 -1 128 5.1743164658546448e-03</internalNodes>
          <leafValues>
            2.5804650783538818e-01 -7.2457216680049896e-02</leafValues></_>
        <_>
          <internalNodes>
            0 -1 352 4.6416819095611572e-02</internalNodes>
          <leafValues>
            4.1015733033418655e-02 -4.0096497535705566e-01</leafValues></_>
        <_>
          <internalNodes>
            0 -1 32 2.1243467926979065e-02</internalNodes>
          <leafValues>
            -1.2880603969097137e-01 1.2072901427745819e-01</leafValues></_>
        <_>
          <internalNodes>
            0 -1 70 1.8200582265853882e-01</internalNodes>
          <leafValues>
            -2.2871285676956177e-02 6.2541729211807251e-01</leafValues></_>
        <_>
          <internalNodes>
            0 -1 150 8.3579961210489273e-03</internalNodes>
          <leafValues>
            -1.9929371774196625e-01 7.7820040285587311e-02</leafValues></_>
        <_>
          <internalNodes>
            0 -1 118 1.0039212554693222e-01</internalNodes>
          <leafValues>
            -3.6080606281757355e-02 5.1240617036819458e-01</leafValues></_>
        <_>
          <internalNodes>
            0 -1 172 2.1328227594494820e-03</internalNodes>
          <leafValues>
            3.5183539986610413e-01 -4.0603101253509521e-02</leafValues></_>
        <_>
          <internalNodes>
            0 -1 164 3.0396942049264908e-02</internalNodes>
          <leafValues>
            -5.5446263402700424e-02 2.9472011327743530e-01</leafValues></_>
        <_>
          <internalNodes>
            0 -1 4 2.0566685125231743e-02</internalNodes>
          <leafValues>
            6.4348593354225159e-02 -2.4592965841293335e-01</leafValues></_>
        <_>
          <internalNodes>
            0 -1 16 7.3471471667289734e-02</internalNodes>
          <leafValues>
            1.7440522089600563e-02 -8.1927692890167236e-01</leafValues></_>
        <_>
          <internalNodes>
            0 -1 264 7.3382776463404298e-04</internalNodes>
          <leafValues>
            -5.7268816232681274e-01 2.2199898958206177e-02</leafValues></_>
        <_>
          <internalNodes>
            0 -1 60 4.0125440806150436e-02</internalNodes>
          <leafValues>
            5.1748443394899368e-02 -2.9096484184265137e-01</leafValues></_>
        <_>
          <internalNodes>
            0 -1 390 1.7344333231449127e-02</internalNodes>
          <leafValues>
            -2.6148593425750732e-01 5.7991966605186462e-02</leafValues></_>
        <_>
          <internalNodes>
            0 -1 213 1.6161058098077774e-02</internalNodes>
          <leafValues>
            -1.4477451145648956e-01 1.0979524999856949e-01</leafValues></_>
        <_>
          <internalNodes>
            0 -1 115 7.1880584582686424e-03</internalNodes>
          <leafValues>
            1.5249831974506378e-01 -1.0483039915561676e-01</leafValues></_>
        <_>
          <internalNodes>
            0 -1 136 5.8449089527130127e-02</internalNodes>
          <leafValues>
            -4.1570615023374557e-02 4.3674144148826599e-01</leafValues></_>
        <_>
          <internalNodes>
            0 -1 223 2.4128701537847519e-02</internalNodes>
          <leafValues>
            -7.5496599078178406e-02 2.1345584094524384e-01</leafValues></_>
        <_>
          <internalNodes>
            0 -1 317 9.4175733625888824e-02</internalNodes>
          <leafValues>
            2.8543055057525635e-02 -6.6849488019943237e-01</leafValues></_>
        <_>
          <internalNodes>
            0 -1 82 5.3037829697132111e-02</internalNodes>
          <leafValues>
            -4.8146814107894897e-02 3.6247330904006958e-01</leafValues></_>
        <_>
          <internalNodes>
            0 -1 228 6.7118126899003983e-03</internalNodes>
          <leafValues>
            2.0311540365219116e-01 -7.7368117868900299e-02</leafValues></_>
        <_>
          <internalNodes>
            0 -1 210 1.2480483856052160e-03</internalNodes>
          <leafValues>
            -6.5545439720153809e-01 2.4054337292909622e-02</leafValues></_>
        <_>
          <internalNodes>
            0 -1 135 1.0947418212890625e-01</internalNodes>
          <leafValues>
            2.2370411083102226e-02 -6.0924661159515381e-01</leafValues></_>
        <_>
          <internalNodes>
            0 -1 7 1.5647956728935242e-01</internalNodes>
          <leafValues>
            -4.0199637413024902e-02 3.9422228932380676e-01</leafValues></_>
        <_>
          <internalNodes>
            0 -1 245 5.8563165366649628e-02</internalNodes>
          <leafValues>
            3.0561737716197968e-02 -5.7447987794876099e-01</leafValues></_>
        <_>
          <internalNodes>
            0 -1 103 3.0446076765656471e-02</internalNodes>
          <leafValues>
            3.2618708908557892e-02 -3.9989465475082397e-01</leafValues></_>
        <_>
          <internalNodes>
            0 -1 368 1.3551250100135803e-01</internalNodes>
          <leafValues>
            -1.9821269437670708e-02 8.9154434204101563e-01</leafValues></_>
        <_>
          <internalNodes>
            0 -1 57 2.2433962672948837e-02</internalNodes>
          <leafValues>
            6.1378512531518936e-02 -2.6701545715332031e-01</leafValues></_>
        <_>
          <internalNodes>
            0 -1 101 6.4161031332332641e-05</internalNodes>
          <leafValues>
            -3.9929893612861633e-01 3.3861465752124786e-02</leafValues></_>
        <_>
          <internalNodes>
            0 -1 351 1.8043033778667450e-02</internalNodes>
          <leafValues>
            1.6143661737442017e-01 -9.3803659081459045e-02</leafValues></_>
        <_>
          <internalNodes>
            0 -1 354 8.9088976383209229e-03</internalNodes>
          <leafValues>
            -2.7544140815734863e-01 5.6533407419919968e-02</leafValues></_>
        <_>
          <internalNodes>
            0 -1 377 1.6924440860748291e-02</internalNodes>
          <leafValues>
            1.0373875498771667e-01 -1.5922626852989197e-01</leafValues></_>
        <_>
          <internalNodes>
            0 -1 233 1.1423484422266483e-02</internalNodes>
          <leafValues>
            -1.9509215652942657e-01 7.7219426631927490e-02</leafValues></_>
        <_>
          <internalNodes>
            0 -1 387 1.5875883400440216e-02</internalNodes>
          <leafValues>
            9.5576979219913483e-02 -1.6163016855716705e-01</leafValues></_>
        <_>
          <internalNodes>
            0 -1 194 1.4265334606170654e-01</internalNodes>
          <leafValues>
            2.0187472924590111e-02 -7.2903186082839966e-01</leafValues></_></weakClassifiers></_>
    <!-- stage 8 -->
    <_>
      <maxWeakCount>100</maxWeakCount>
      <stageThreshold>-7.9513788223266602e-01</stageThreshold>
      <weakClassifiers>
        <_>
          <internalNodes>
            0 -1 349 3.1092196702957153e-02</internalNodes>
          <leafValues>
            -2.0260223746299744e-01 5.4258167743682861e-01</leafValues></_>
        <_>
          <internalNodes>
            0 -1 344 5.5442146956920624e-02</internalNodes>
          <leafValues>
            -1.9954898953437805e-01 4.4095209240913391e-01</leafValues></_>
        <_>
          <internalNodes>
            0 -1 199 6.4686894416809082e-02</internalNodes>
          <leafValues>
            -1.0583777725696564e-01 6.0369747877120972e-01</leafValues></_>
        <_>
          <internalNodes>
            0 -1 229 2.4651080369949341e-02</internalNodes>
          <leafValues>
            1.5458333492279053e-01 -2.5616014003753662e-01</leafValues></_>
        <_>
          <internalNodes>
            0 -1 48 3.6290036514401436e-03</internalNodes>
          <leafValues>
            3.4333935379981995e-01 -8.5791304707527161e-02</leafValues></_>
        <_>
          <internalNodes>
            0 -1 72 8.9975103735923767e-02</internalNodes>
          <leafValues>
            2.1528955549001694e-02 -4.8652926087379456e-01</leafValues></_>
        <_>
          <internalNodes>
            0 -1 355 1.8346194177865982e-02</internalNodes>
          <leafValues>
            1.4408797025680542e-01 -1.9363714754581451e-01</leafValues></_>
        <_>
          <internalNodes>
            0 -1 138 3.1070534139871597e-02</internalNodes>
          <leafValues>
            -1.3046711683273315e-01 2.1136155724525452e-01</leafValues></_>
        <_>
          <internalNodes>
            0 -1 53 1.1967830359935760e-02</internalNodes>
          <leafValues>
            -2.2305089235305786e-01 1.5975873172283173e-01</leafValues></_>
        <_>
          <internalNodes>
            0 -1 252 8.2936715334653854e-03</internalNodes>
          <leafValues>
            2.1886478364467621e-01 -1.1552545428276062e-01</leafValues></_>
        <_>
          <internalNodes>
            0 -1 292 9.4534873962402344e-02</internalNodes>
          <leafValues>
            -6.0635309666395187e-02 5.4119402170181274e-01</leafValues></_>
        <_>
          <internalNodes>
            0 -1 43 2.7923151850700378e-02</internalNodes>
          <leafValues>
            1.1020235717296600e-01 -2.2736775875091553e-01</leafValues></_>
        <_>
          <internalNodes>
            0 -1 92 2.4097476154565811e-02</internalNodes>
          <leafValues>
            1.2013997882604599e-01 -1.9324168562889099e-01</leafValues></_>
        <_>
          <internalNodes>
            0 -1 185 4.5493833720684052e-02</internalNodes>
          <leafValues>
            -1.0073374211788177e-01 2.2946986556053162e-01</leafValues></_>
        <_>
          <internalNodes>
            0 -1 338 6.2619663774967194e-02</internalNodes>
          <leafValues>
            4.0989633649587631e-02 -6.1947947740554810e-01</leafValues></_>
        <_>
          <internalNodes>
            0 -1 78 3.8064312189817429e-02</internalNodes>
          <leafValues>
            -1.0849861800670624e-01 2.0158541202545166e-01</leafValues></_>
        <_>
          <internalNodes>
            0 -1 190 3.7058688700199127e-02</internalNodes>
          <leafValues>
            -1.3072729110717773e-01 1.6667062044143677e-01</leafValues></_>
        <_>
          <internalNodes>
            0 -1 186 5.5248413234949112e-02</internalNodes>
          <leafValues>
            -5.2277211099863052e-02 4.6976941823959351e-01</leafValues></_>
        <_>
          <internalNodes>
            0 -1 140 7.4116677045822144e-02</internalNodes>
          <leafValues>
            -2.5304388254880905e-02 8.6417084932327271e-01</leafValues></_>
        <_>
          <internalNodes>
            0 -1 321 1.1553870514035225e-02</internalNodes>
          <leafValues>
            -1.8342602252960205e-01 1.3125382363796234e-01</leafValues></_>
        <_>
          <internalNodes>
            0 -1 336 5.2607186138629913e-02</internalNodes>
          <leafValues>
            -1.0561621189117432e-01 1.8791125714778900e-01</leafValues></_>
        <_>
          <internalNodes>
            0 -1 5 5.0011061131954193e-02</internalNodes>
          <leafValues>
            -9.4280056655406952e-02 2.5257948040962219e-01</leafValues></_>
        <_>
          <internalNodes>
            0 -1 2 4.1309112566523254e-04</internalNodes>
          <leafValues>
            -4.8018303513526917e-01 5.1542371511459351e-02</leafValues></_>
        <_>
          <internalNodes>
            0 -1 273 1.4301350340247154e-02</internalNodes>
          <leafValues>
            1.1051145941019058e-01 -1.8271656334400177e-01</leafValues></_>
        <_>
          <internalNodes>
            0 -1 239 4.8186518251895905e-03</internalNodes>
          <leafValues>
            2.1937265992164612e-01 -9.4643883407115936e-02</leafValues></_>
        <_>
          <internalNodes>
            0 -1 380 5.3230002522468567e-02</internalNodes>
          <leafValues>
            2.7160448953509331e-02 -7.5656414031982422e-01</leafValues></_>
        <_>
          <internalNodes>
            0 -1 218 9.3759790062904358e-02</internalNodes>
          <leafValues>
            3.7362165749073029e-02 -4.5712020993232727e-01</leafValues></_>
        <_>
          <internalNodes>
            0 -1 268 3.3278755843639374e-02</internalNodes>
          <leafValues>
            6.6720679402351379e-02 -3.0575671792030334e-01</leafValues></_>
        <_>
          <internalNodes>
            0 -1 54 8.5919331759214401e-03</internalNodes>
          <leafValues>
            -1.9615036249160767e-01 9.3936547636985779e-02</leafValues></_>
        <_>
          <internalNodes>
            0 -1 45 3.1026725191622972e-03</internalNodes>
          <leafValues>
            3.0824467539787292e-01 -6.7350380122661591e-02</leafValues></_>
        <_>
          <internalNodes>
            0 -1 292 3.4814737737178802e-03</internalNodes>
          <leafValues>
            -8.5476303100585938e-01 2.5086205452680588e-02</leafValues></_>
        <_>
          <internalNodes>
            0 -1 288 1.1179731786251068e-01</internalNodes>
          <leafValues>
            2.5354782119393349e-02 -6.1302375793457031e-01</leafValues></_>
        <_>
          <internalNodes>
            0 -1 203 3.0559424310922623e-02</internalNodes>
          <leafValues>
            4.4455733150243759e-02 -3.8656395673751831e-01</leafValues></_>
        <_>
          <internalNodes>
            0 -1 361 3.8466849364340305e-03</internalNodes>
          <leafValues>
            4.2719516158103943e-01 -4.4048361480236053e-02</leafValues></_>
        <_>
          <internalNodes>
            0 -1 155 1.4783154428005219e-01</internalNodes>
          <leafValues>
            -2.3468028753995895e-02 7.0569205284118652e-01</leafValues></_>
        <_>
          <internalNodes>
            0 -1 121 5.0004936754703522e-02</internalNodes>
          <leafValues>
            -3.1199140474200249e-02 5.0619614124298096e-01</leafValues></_>
        <_>
          <internalNodes>
            0 -1 74 7.4232928454875946e-03</internalNodes>
          <leafValues>
            2.0650529861450195e-01 -9.2326983809471130e-02</leafValues></_>
        <_>
          <internalNodes>
            0 -1 37 3.6128282546997070e-02</internalNodes>
          <leafValues>
            -2.0180939137935638e-01 1.0336218774318695e-01</leafValues></_>
        <_>
          <internalNodes>
            0 -1 98 3.8104780018329620e-02</internalNodes>
          <leafValues>
            1.3203611969947815e-01 -1.8294273316860199e-01</leafValues></_>
        <_>
          <internalNodes>
            0 -1 384 8.2500830292701721e-02</internalNodes>
          <leafValues>
            2.4762816727161407e-02 -6.8098789453506470e-01</leafValues></_>
        <_>
          <internalNodes>
            0 -1 34 1.1463059484958649e-01</internalNodes>
          <leafValues>
            2.8429219499230385e-02 -6.3446694612503052e-01</leafValues></_>
        <_>
          <internalNodes>
            0 -1 36 4.5256037265062332e-02</internalNodes>
          <leafValues>
            2.1465122699737549e-02 -7.3085373640060425e-01</leafValues></_>
        <_>
          <internalNodes>
            0 -1 162 1.8956366926431656e-02</internalNodes>
          <leafValues>
            -1.8963927030563354e-01 9.6759431064128876e-02</leafValues></_>
        <_>
          <internalNodes>
            0 -1 348 1.1942215263843536e-02</internalNodes>
          <leafValues>
            2.4437576532363892e-01 -9.6653960645198822e-02</leafValues></_>
        <_>
          <internalNodes>
            0 -1 168 8.5471011698246002e-02</internalNodes>
          <leafValues>
            -6.0515087097883224e-02 3.3227172493934631e-01</leafValues></_>
        <_>
          <internalNodes>
            0 -1 312 3.6702607758343220e-03</internalNodes>
          <leafValues>
            -4.0632477402687073e-01 5.1990065723657608e-02</leafValues></_>
        <_>
          <internalNodes>
            0 -1 222 2.8291346970945597e-03</internalNodes>
          <leafValues>
            -8.3953642845153809e-01 1.8365213647484779e-02</leafValues></_>
        <_>
          <internalNodes>
            0 -1 333 1.3299480080604553e-02</internalNodes>
          <leafValues>
            8.7125949561595917e-02 -2.0235578715801239e-01</leafValues></_>
        <_>
          <internalNodes>
            0 -1 189 7.3873743414878845e-02</internalNodes>
          <leafValues>
            -3.7905201315879822e-02 5.0390088558197021e-01</leafValues></_>
        <_>
          <internalNodes>
            0 -1 75 5.8284738770453259e-05</internalNodes>
          <leafValues>
            -4.2012059688568115e-01 4.8084914684295654e-02</leafValues></_>
        <_>
          <internalNodes>
            0 -1 387 3.2139088958501816e-02</internalNodes>
          <leafValues>
            4.8202220350503922e-02 -3.8425683975219727e-01</leafValues></_>
        <_>
          <internalNodes>
            0 -1 110 1.2259819544851780e-02</internalNodes>
          <leafValues>
            -4.7243538498878479e-01 2.9426669701933861e-02</leafValues></_>
        <_>
          <internalNodes>
            0 -1 117 6.1169788241386414e-02</internalNodes>
          <leafValues>
            2.0936774089932442e-02 -6.6893488168716431e-01</leafValues></_>
        <_>
          <internalNodes>
            0 -1 237 3.3792912960052490e-02</internalNodes>
          <leafValues>
            -6.9812536239624023e-02 2.6321852207183838e-01</leafValues></_>
        <_>
          <internalNodes>
            0 -1 58 6.2248952686786652e-02</internalNodes>
          <leafValues>
            -2.0465830340981483e-02 7.2689288854598999e-01</leafValues></_>
        <_>
          <internalNodes>
            0 -1 308 3.0541757587343454e-03</internalNodes>
          <leafValues>
            3.0987074971199036e-01 -5.2724089473485947e-02</leafValues></_>
        <_>
          <internalNodes>
            0 -1 263 3.9302860386669636e-04</internalNodes>
          <leafValues>
            -8.4714162349700928e-01 2.0472338423132896e-02</leafValues></_>
        <_>
          <internalNodes>
            0 -1 158 1.5547984838485718e-01</internalNodes>
          <leafValues>
            1.6623321920633316e-02 -8.6161810159683228e-01</leafValues></_>
        <_>
          <internalNodes>
            0 -1 88 2.4700501561164856e-01</internalNodes>
          <leafValues>
            -2.0219847559928894e-02 9.7277814149856567e-01</leafValues></_>
        <_>
          <internalNodes>
            0 -1 175 7.1549892425537109e-02</internalNodes>
          <leafValues>
            4.2045656591653824e-02 -6.0016793012619019e-01</leafValues></_>
        <_>
          <internalNodes>
            0 -1 184 2.5624851696193218e-03</internalNodes>
          <leafValues>
            3.7462204694747925e-01 -4.6175692230463028e-02</leafValues></_>
        <_>
          <internalNodes>
            0 -1 320 1.7379689961671829e-02</internalNodes>
          <leafValues>
            -1.3021332025527954e-01 1.5440075099468231e-01</leafValues></_>
        <_>
          <internalNodes>
            0 -1 291 9.5962509512901306e-03</internalNodes>
          <leafValues>
            -2.6255294680595398e-01 7.5398609042167664e-02</leafValues></_>
        <_>
          <internalNodes>
            0 -1 248 7.9013004899024963e-02</internalNodes>
          <leafValues>
            -3.0750691890716553e-02 5.5193382501602173e-01</leafValues></_>
        <_>
          <internalNodes>
            0 -1 68 2.3817969486117363e-03</internalNodes>
          <leafValues>
            2.9651516675949097e-01 -5.5590189993381500e-02</leafValues></_>
        <_>
          <internalNodes>
            0 -1 379 1.8812898546457291e-02</internalNodes>
          <leafValues>
            -2.6841685175895691e-01 6.8673223257064819e-02</leafValues></_>
        <_>
          <internalNodes>
            0 -1 174 1.9741918891668320e-02</internalNodes>
          <leafValues>
            1.8409867584705353e-01 -1.2653346359729767e-01</leafValues></_>
        <_>
          <internalNodes>
            0 -1 187 4.1637755930423737e-02</internalNodes>
          <leafValues>
            -5.2855357527732849e-02 3.2053077220916748e-01</leafValues></_>
        <_>
          <internalNodes>
            0 -1 267 6.6438997164368629e-03</internalNodes>
          <leafValues>
            1.9330680370330811e-01 -1.2162513285875320e-01</leafValues></_>
        <_>
          <internalNodes>
            0 -1 293 4.4124543666839600e-02</internalNodes>
          <leafValues>
            -7.0495091378688812e-02 2.4935869872570038e-01</leafValues></_>
        <_>
          <internalNodes>
            0 -1 356 5.2026294171810150e-02</internalNodes>
          <leafValues>
            1.9767234101891518e-02 -8.1609863042831421e-01</leafValues></_>
        <_>
          <internalNodes>
            0 -1 87 7.5186528265476227e-02</internalNodes>
          <leafValues>
            1.5518146567046642e-02 -8.4462076425552368e-01</leafValues></_>
        <_>
          <internalNodes>
            0 -1 196 6.1432205140590668e-02</internalNodes>
          <leafValues>
            3.0413616448640823e-02 -5.0081509351730347e-01</leafValues></_>
        <_>
          <internalNodes>
            0 -1 230 4.3686898425221443e-03</internalNodes>
          <leafValues>
            -4.1556179523468018e-01 4.1704356670379639e-02</leafValues></_>
        <_>
          <internalNodes>
            0 -1 106 7.0783168077468872e-02</internalNodes>
          <leafValues>
            1.8982013687491417e-02 -8.2209712266921997e-01</leafValues></_>
        <_>
          <internalNodes>
            0 -1 326 2.7929977513849735e-03</internalNodes>
          <leafValues>
            -7.3078137636184692e-01 1.8910422921180725e-02</leafValues></_>
        <_>
          <internalNodes>
            0 -1 104 7.1408942341804504e-02</internalNodes>
          <leafValues>
            -8.3347901701927185e-02 1.9756320118904114e-01</leafValues></_>
        <_>
          <internalNodes>
            0 -1 265 1.2609753012657166e-01</internalNodes>
          <leafValues>
            3.2463472336530685e-02 -6.0007125139236450e-01</leafValues></_>
        <_>
          <internalNodes>
            0 -1 116 2.6025823317468166e-03</internalNodes>
          <leafValues>
            2.2630658745765686e-01 -7.4019357562065125e-02</leafValues></_>
        <_>
          <internalNodes>
            0 -1 123 6.9075003266334534e-02</internalNodes>
          <leafValues>
            -3.3753994852304459e-02 4.7155523300170898e-01</leafValues></_>
        <_>
          <internalNodes>
            0 -1 347 2.8486426919698715e-02</internalNodes>
          <leafValues>
            7.9564198851585388e-02 -2.2831007838249207e-01</leafValues></_>
        <_>
          <internalNodes>
            0 -1 215 7.3644183576107025e-03</internalNodes>
          <leafValues>
            -2.8770339488983154e-01 5.9003841131925583e-02</leafValues></_>
        <_>
          <internalNodes>
            0 -1 395 4.7910017892718315e-03</internalNodes>
          <leafValues>
            4.9149602651596069e-01 -5.0610292702913284e-02</leafValues></_>
        <_>
          <internalNodes>
            0 -1 206 8.6039467714726925e-04</internalNodes>
          <leafValues>
